  DATE: 2018-03-30 CONTRIBUTOR: Xiaowang Zhou xzhou@sandia.gov and Lucas Hale lucas.hale@nist.gov CITATION: X. W. Zhou, R. A. Johnson, H. N. G. Wadley, Phys. Rev. B, 69, 144113(2004)
  Generated from Zhou04_create_v2.f
  Fixes precision issues with older version
3 Ag Al O
 2000  0.5002501250625312E-01 2000  0.3234763723004291E-02  0.6466292682285578E+01
   47     107.87         4.0896    fcc     
  0.000000000000E+00 -1.512750840270E-02 -3.017090776445E-02 -4.513041854478E-02
 -6.000626120321E-02 -7.479865619925E-02 -8.950782399244E-02 -1.041339850423E-01
 -1.186773598083E-01 -1.331381687500E-01 -1.475166323270E-01 -1.618129709986E-01
 -1.760274052246E-01 -1.901601554643E-01 -2.042114421774E-01 -2.181814858232E-01
 -2.320705068614E-01 -2.458787257515E-01 -2.596063629530E-01 -2.732536389254E-01
 -2.868207741282E-01 -3.003079890209E-01 -3.137155040631E-01 -3.270435397144E-01
 -3.402923164341E-01 -3.534620546819E-01 -3.665529749172E-01 -3.795652975996E-01
 -3.924992431886E-01 -4.053550321437E-01 -4.181328849245E-01 -4.308330219904E-01
 -4.434556638010E-01 -4.560010308158E-01 -4.684693434943E-01 -4.808608222960E-01
 -4.931756876806E-01 -5.054141601074E-01 -5.175764600360E-01 -5.296628079259E-01
 -5.416734242367E-01 -5.536085294279E-01 -5.654683439589E-01 -5.772530882894E-01
 -5.889629828788E-01 -6.005982481866E-01 -6.121591046724E-01 -6.236457727957E-01
 -6.350584730160E-01 -6.463974257929E-01 -6.576628515858E-01 -6.688549708543E-01
 -6.799740040579E-01 -6.910201716561E-01 -7.019936941084E-01 -7.128947918744E-01
 -7.237236854136E-01 -7.344805951855E-01 -7.451657416496E-01 -7.557793452654E-01
 -7.663216264926E-01 -7.767928057905E-01 -7.871931036187E-01 -7.975227404367E-01
 -8.077819367041E-01 -8.179709128804E-01 -8.280898894250E-01 -8.381390867976E-01
 -8.481187254575E-01 -8.580290258645E-01 -8.678702084779E-01 -8.776424937573E-01
 -8.873461021622E-01 -8.969812541522E-01 -9.065481701867E-01 -9.160470707253E-01
 -9.254781762275E-01 -9.348417071528E-01 -9.441378839607E-01 -9.533669271108E-01
 -9.625290570626E-01 -9.716244942756E-01 -9.806534592093E-01 -9.896161723233E-01
 -9.985128540770E-01 -1.007343724930E+00 -1.016109005342E+00 -1.024808915772E+00
 -1.033443676680E+00 -1.042013508525E+00 -1.050518631768E+00 -1.058959266866E+00
 -1.067335634281E+00 -1.075647954471E+00 -1.083896447896E+00 -1.092081335016E+00
 -1.100202836289E+00 -1.108261172176E+00 -1.116256563136E+00 -1.124189229629E+00
 -1.132059392114E+00 -1.139867271050E+00 -1.147613086898E+00 -1.155297060116E+00
 -1.162919411164E+00 -1.170480360503E+00 -1.177980128590E+00 -1.185418935886E+00
 -1.192797002850E+00 -1.200114549942E+00 -1.207371797622E+00 -1.214568966348E+00
 -1.221706276581E+00 -1.228783948779E+00 -1.235802203403E+00 -1.242761260912E+00
 -1.249661341765E+00 -1.256502666422E+00 -1.263285455343E+00 -1.270009928987E+00
 -1.276676307813E+00 -1.283284812281E+00 -1.289835662851E+00 -1.296329079982E+00
 -1.302765284133E+00 -1.309144495765E+00 -1.315466935336E+00 -1.321732823306E+00
 -1.327942380135E+00 -1.334095826283E+00 -1.340193382208E+00 -1.346235268370E+00
 -1.352221705229E+00 -1.358152913244E+00 -1.364029112875E+00 -1.369850524582E+00
 -1.375617368823E+00 -1.381329866059E+00 -1.386988236748E+00 -1.392592701351E+00
 -1.398143480327E+00 -1.403640794135E+00 -1.409084863236E+00 -1.414475908088E+00
 -1.419814149150E+00 -1.425099806884E+00 -1.430333101747E+00 -1.435514254200E+00
 -1.440643484702E+00 -1.445721013713E+00 -1.450747061692E+00 -1.455721849098E+00
 -1.460645596392E+00 -1.465518524033E+00 -1.470340852479E+00 -1.475112802192E+00
 -1.479834593629E+00 -1.484506447252E+00 -1.489128583518E+00 -1.493701222889E+00
 -1.498224585823E+00 -1.502698892780E+00 -1.507124364219E+00 -1.511501220600E+00
 -1.515829682383E+00 -1.520109970026E+00 -1.524342303990E+00 -1.528526904734E+00
 -1.532663992718E+00 -1.536753788400E+00 -1.540796512241E+00 -1.544792384700E+00
 -1.548741626237E+00 -1.552644457311E+00 -1.556501098382E+00 -1.560311769908E+00
 -1.564076692351E+00 -1.567796086168E+00 -1.571470171821E+00 -1.575099169767E+00
 -1.578683300468E+00 -1.582222784381E+00 -1.585717841968E+00 -1.589168693686E+00
 -1.592575559997E+00 -1.595938661359E+00 -1.599258218232E+00 -1.602534451075E+00
 -1.605767580348E+00 -1.608957826511E+00 -1.612105410023E+00 -1.615210551343E+00
 -1.618273470931E+00 -1.621294389247E+00 -1.624273526750E+00 -1.627211103899E+00
 -1.630107341154E+00 -1.632962458976E+00 -1.635776677822E+00 -1.638550218153E+00
 -1.641283300428E+00 -1.643976145107E+00 -1.646628972649E+00 -1.649242003513E+00
 -1.651815458160E+00 -1.654349557049E+00 -1.656844520639E+00 -1.659300569390E+00
 -1.661717923762E+00 -1.664096804213E+00 -1.666437431203E+00 -1.668740025193E+00
 -1.671004806641E+00 -1.673231996007E+00 -1.675421813750E+00 -1.677574480331E+00
 -1.679690216207E+00 -1.681769241840E+00 -1.683811777689E+00 -1.685818044212E+00
 -1.687788261871E+00 -1.689722651123E+00 -1.691621432429E+00 -1.693484826248E+00
 -1.695313053040E+00 -1.697106333264E+00 -1.698864887379E+00 -1.700588935846E+00
 -1.702278699124E+00 -1.703934397672E+00 -1.705556251950E+00 -1.707144482417E+00
 -1.708699309533E+00 -1.710220953758E+00 -1.711709635550E+00 -1.713165575370E+00
 -1.714588993676E+00 -1.715980110929E+00 -1.717339147589E+00 -1.718666324113E+00
 -1.719961860963E+00 -1.721225978597E+00 -1.722458897475E+00 -1.723660838057E+00
 -1.724832020802E+00 -1.725972666169E+00 -1.727082994619E+00 -1.728163226610E+00
 -1.729213582603E+00 -1.730234221348E+00 -1.731225539764E+00 -1.732187749288E+00
 -1.733121127399E+00 -1.734025951578E+00 -1.734902499305E+00 -1.735751048058E+00
 -1.736571875320E+00 -1.737365258568E+00 -1.738131475285E+00 -1.738870802949E+00
 -1.739583519041E+00 -1.740269901040E+00 -1.740930226427E+00 -1.741564772681E+00
 -1.742173817284E+00 -1.742757637714E+00 -1.743316511451E+00 -1.743850715977E+00
 -1.744360528770E+00 -1.744846227311E+00 -1.745308089079E+00 -1.745746391556E+00
 -1.746161412220E+00 -1.746553428553E+00 -1.746922718033E+00 -1.747269558141E+00
 -1.747594226357E+00 -1.747897000160E+00 -1.748178157032E+00 -1.748437974452E+00
 -1.748676729900E+00 -1.748894700856E+00 -1.749092164799E+00 -1.749269399211E+00
 -1.749426681571E+00 -1.749564289359E+00 -1.749682500055E+00 -1.749781591139E+00
 -1.749861840092E+00 -1.749923524392E+00 -1.749966921521E+00 -1.749992308958E+00
 -1.749999964183E+00 -1.749990164676E+00 -1.749963187917E+00 -1.749919311387E+00
 -1.749858812565E+00 -1.749781968932E+00 -1.749689057967E+00 -1.749580357150E+00
 -1.749456143961E+00 -1.749316695881E+00 -1.749162290389E+00 -1.748993204966E+00
 -1.748809717091E+00 -1.748612104245E+00 -1.748400643907E+00 -1.748175613557E+00
 -1.747937290676E+00 -1.747685952744E+00 -1.747421877240E+00 -1.747145341645E+00
 -1.746856623438E+00 -1.746556000100E+00 -1.746243749111E+00 -1.745920147950E+00
 -1.745585474098E+00 -1.745240005035E+00 -1.744884018240E+00 -1.744517791194E+00
 -1.744141601377E+00 -1.743755726269E+00 -1.743360443349E+00 -1.742956030098E+00
 -1.742542763996E+00 -1.742120922523E+00 -1.741690783159E+00 -1.741252623383E+00
 -1.740806720677E+00 -1.740353352519E+00 -1.739892796390E+00 -1.739425329771E+00
 -1.738951230140E+00 -1.738470774978E+00 -1.737984241766E+00 -1.737491907982E+00
 -1.736993580007E+00 -1.736486534685E+00 -1.735969229948E+00 -1.735441709450E+00
 -1.734904016536E+00 -1.734356194245E+00 -1.733798285311E+00 -1.733230332170E+00
 -1.732652376960E+00 -1.732064461523E+00 -1.731466627411E+00 -1.730858915887E+00
 -1.730241367929E+00 -1.729614024229E+00 -1.728976925201E+00 -1.728330110982E+00
 -1.727673621432E+00 -1.727007496141E+00 -1.726331774426E+00 -1.725646495341E+00
 -1.724951697672E+00 -1.724247419945E+00 -1.723533700425E+00 -1.722810577122E+00
 -1.722078087789E+00 -1.721336269928E+00 -1.720585160790E+00 -1.719824797381E+00
 -1.719055216460E+00 -1.718276454541E+00 -1.717488547902E+00 -1.716691532578E+00
 -1.715885444371E+00 -1.715070318847E+00 -1.714246191340E+00 -1.713413096956E+00
 -1.712571070572E+00 -1.711720146838E+00 -1.710860360184E+00 -1.709991744814E+00
 -1.709114334717E+00 -1.708228163661E+00 -1.707333265200E+00 -1.706429672673E+00
 -1.705517419209E+00 -1.704596537727E+00 -1.703667060935E+00 -1.702729021338E+00
 -1.701782451237E+00 -1.700827382727E+00 -1.699863847706E+00 -1.698891877871E+00
 -1.697911504722E+00 -1.696922759564E+00 -1.695925673507E+00 -1.694920277471E+00
 -1.693906602183E+00 -1.692884678183E+00 -1.691854535823E+00 -1.690816205271E+00
 -1.689769716507E+00 -1.688715099334E+00 -1.687652383370E+00 -1.686581598056E+00
 -1.685502772653E+00 -1.684415936249E+00 -1.683321117754E+00 -1.682218345906E+00
 -1.681107649272E+00 -1.679989056247E+00 -1.678862595058E+00 -1.677728293765E+00
 -1.676586180261E+00 -1.675436282273E+00 -1.674278627368E+00 -1.673113242947E+00
 -1.671940156253E+00 -1.670759394368E+00 -1.669570984218E+00 -1.668374952570E+00
 -1.667171326036E+00 -1.665960131075E+00 -1.664741393992E+00 -1.663515140941E+00
 -1.662281397923E+00 -1.661040190793E+00 -1.659791545256E+00 -1.658535486871E+00
 -1.657272041051E+00 -1.656001233064E+00 -1.654723088034E+00 -1.653437630946E+00
 -1.652144886640E+00 -1.650844879817E+00 -1.649537635042E+00 -1.648223176737E+00
 -1.646901529192E+00 -1.645572716559E+00 -1.644236762856E+00 -1.642893691968E+00
 -1.641543527646E+00 -1.640186293511E+00 -1.638822013052E+00 -1.637450709631E+00
 -1.636072406480E+00 -1.634687126704E+00 -1.633294893281E+00 -1.631895729063E+00
 -1.630489656780E+00 -1.629076699036E+00 -1.627656878314E+00 -1.626230216974E+00
 -1.624796737255E+00 -1.623356461278E+00 -1.621909411044E+00 -1.620455608436E+00
 -1.618995075219E+00 -1.617527833044E+00 -1.616053903444E+00 -1.614573307839E+00
 -1.613086067536E+00 -1.611592203727E+00 -1.610091737494E+00 -1.608584689806E+00
 -1.607071081524E+00 -1.605550933397E+00 -1.604024266067E+00 -1.602491100069E+00
 -1.600951455827E+00 -1.599405353662E+00 -1.597852813790E+00 -1.596293856319E+00
 -1.594728501255E+00 -1.593156768501E+00 -1.591578677858E+00 -1.589994249022E+00
 -1.588403501591E+00 -1.586806455063E+00 -1.585203128834E+00 -1.583593542202E+00
 -1.581977714369E+00 -1.580355664436E+00 -1.578727411409E+00 -1.577092974199E+00
 -1.575452371619E+00 -1.573805622390E+00 -1.572152745137E+00 -1.570493758393E+00
 -1.568828680596E+00 -1.567157530095E+00 -1.565480325145E+00 -1.563797083911E+00
 -1.562107824469E+00 -1.560412564804E+00 -1.558711322811E+00 -1.557004116301E+00
 -1.555290962993E+00 -1.553571880520E+00 -1.551846886430E+00 -1.550115998183E+00
 -1.548379233156E+00 -1.546636608639E+00 -1.544888141840E+00 -1.543133849881E+00
 -1.541373749803E+00 -1.539607858565E+00 -1.537836193042E+00 -1.536058770028E+00
 -1.534275606239E+00 -1.532486718307E+00 -1.530692122787E+00 -1.528891836154E+00
 -1.527085874803E+00 -1.525274255055E+00 -1.523456993148E+00 -1.521634105248E+00
 -1.519805607440E+00 -1.517971515736E+00 -1.516131846072E+00 -1.514286614309E+00
 -1.512435836231E+00 -1.510579527552E+00 -1.508717703910E+00 -1.506850380870E+00
 -1.504977573925E+00 -1.503099298496E+00 -1.501215569932E+00 -1.499326403510E+00
 -1.497431814439E+00 -1.495531817854E+00 -1.493626428824E+00 -1.491715662345E+00
 -1.489799533347E+00 -1.487878056691E+00 -1.485951247169E+00 -1.484019119505E+00
 -1.482081688358E+00 -1.480138968319E+00 -1.478190973911E+00 -1.476237719595E+00
 -1.474279219764E+00 -1.472315488746E+00 -1.470346540805E+00 -1.468372390141E+00
 -1.466393050889E+00 -1.464408537121E+00 -1.462418862848E+00 -1.460424042016E+00
 -1.458424088510E+00 -1.456419016153E+00 -1.454408838705E+00 -1.452393569867E+00
 -1.450373223279E+00 -1.448347812520E+00 -1.446317351110E+00 -1.444281852507E+00
 -1.442241330114E+00 -1.440195797272E+00 -1.438145267264E+00 -1.436089753316E+00
 -1.434029268594E+00 -1.431963826210E+00 -1.429893439217E+00 -1.427818120610E+00
 -1.425737883330E+00 -1.423652740262E+00 -1.421562704233E+00 -1.419467788016E+00
 -1.417368004331E+00 -1.415263365839E+00 -1.413153885152E+00 -1.411039574822E+00
 -1.408920447353E+00 -1.406796515192E+00 -1.404667790735E+00 -1.402534286323E+00
 -1.400396014247E+00 -1.398252986744E+00 -1.396105216001E+00 -1.393952714152E+00
 -1.391795493281E+00 -1.389633565421E+00 -1.387466942552E+00 -1.385295636608E+00
 -1.383119659470E+00 -1.380939022969E+00 -1.378753738890E+00 -1.376563818965E+00
 -1.374369274879E+00 -1.372170118268E+00 -1.369966360721E+00 -1.367758013777E+00
 -1.365545088930E+00 -1.363327597623E+00 -1.361105551255E+00 -1.358878961177E+00
 -1.356647838693E+00 -1.354412195062E+00 -1.352172041494E+00 -1.349927389157E+00
 -1.347678249171E+00 -1.345424632612E+00 -1.343166550509E+00 -1.340904013850E+00
 -1.338637033574E+00 -1.336365620578E+00 -1.334089785717E+00 -1.331809539797E+00
 -1.329524893587E+00 -1.327235857806E+00 -1.324942443136E+00 -1.322644660213E+00
 -1.320342519631E+00 -1.318036031941E+00 -1.315725207653E+00 -1.313410057235E+00
 -1.311090591115E+00 -1.308766819675E+00 -1.306438753261E+00 -1.304106402175E+00
 -1.301769776680E+00 -1.299428886997E+00 -1.297083743308E+00 -1.294734355754E+00
 -1.292380734438E+00 -1.290022889422E+00 -1.287660830728E+00 -1.285294568341E+00
 -1.282924112205E+00 -1.280549472226E+00 -1.278170658273E+00 -1.275787680174E+00
 -1.273400547720E+00 -1.271009270667E+00 -1.268613858728E+00 -1.266214321583E+00
 -1.263810668872E+00 -1.261402910200E+00 -1.258991055134E+00 -1.256575113204E+00
 -1.254155093905E+00 -1.251731006694E+00 -1.249302860992E+00 -1.246870666187E+00
 -1.244434431628E+00 -1.241994166629E+00 -1.239549880471E+00 -1.237101582396E+00
 -1.234649281616E+00 -1.232192987304E+00 -1.229732708600E+00 -1.227268454609E+00
 -1.224800234405E+00 -1.222328057023E+00 -1.219851931467E+00 -1.217371866708E+00
 -1.214887871681E+00 -1.212399955291E+00 -1.209908126406E+00 -1.207412393863E+00
 -1.204912766468E+00 -1.202409252992E+00 -1.199901862173E+00 -1.197390602719E+00
 -1.194875483304E+00 -1.192356512572E+00 -1.189833699133E+00 -1.187307051566E+00
 -1.184776578420E+00 -1.182242288210E+00 -1.179704189424E+00 -1.177162290515E+00
 -1.174616599906E+00 -1.172067125991E+00 -1.169513877133E+00 -1.166956861663E+00
 -1.164396087883E+00 -1.161831564066E+00 -1.159263298454E+00 -1.156691299258E+00
 -1.154115574661E+00 -1.151536132818E+00 -1.148952981851E+00 -1.146366129855E+00
 -1.143775584897E+00 -1.141181355013E+00 -1.138583448212E+00 -1.135981872473E+00
 -1.133376635748E+00 -1.130767745960E+00 -1.128155211003E+00 -1.125539038744E+00
 -1.122919237023E+00 -1.120295813650E+00 -1.117668776410E+00 -1.115038133059E+00
 -1.112403891325E+00 -1.109766058911E+00 -1.107124643490E+00 -1.104479652712E+00
 -1.101831094197E+00 -1.099178975539E+00 -1.096523304306E+00 -1.093864088041E+00
 -1.091201334257E+00 -1.088535050444E+00 -1.085865244066E+00 -1.083191922559E+00
 -1.080515093335E+00 -1.077834763780E+00 -1.075150941254E+00 -1.072463633092E+00
 -1.069772846604E+00 -1.067078589074E+00 -1.064380867763E+00 -1.061679689904E+00
 -1.058975062708E+00 -1.056266993360E+00 -1.053555489020E+00 -1.050840556826E+00
 -1.048122203888E+00 -1.045400437295E+00 -1.042675264110E+00 -1.039946691374E+00
 -1.037214726102E+00 -1.034479375287E+00 -1.031740645896E+00 -1.028998544876E+00
 -1.026253079147E+00 -1.023504255609E+00 -1.020752081136E+00 -1.017996562581E+00
 -1.015237706773E+00 -1.012475520518E+00 -1.009710010601E+00 -1.006941183781E+00
 -1.004169046797E+00 -1.001393606366E+00 -9.986148691813E-01 -9.958328419141E-01
 -9.930475312140E-01 -9.902589437083E-01 -9.874670860026E-01 -9.846719646804E-01
 -9.818735863039E-01 -9.790719574132E-01 -9.762670845273E-01 -9.734589741436E-01
 -9.706476327383E-01 -9.678330667662E-01 -9.650152826613E-01 -9.621942868362E-01
 -9.593700856828E-01 -9.565426855722E-01 -9.537120928548E-01 -9.508783138601E-01
 -9.480413548974E-01 -9.452012222553E-01 -9.423579222021E-01 -9.395114609860E-01
 -9.366618448348E-01 -9.338090799563E-01 -9.309531725384E-01 -9.280941287489E-01
 -9.252319547361E-01 -9.223666566283E-01 -9.194982405343E-01 -9.166267125432E-01
 -9.137520787249E-01 -9.108743451298E-01 -9.079935177889E-01 -9.051096027141E-01
 -9.022226058983E-01 -8.993325333152E-01 -8.964393909197E-01 -8.935431846477E-01
 -8.906439204164E-01 -8.877416041244E-01 -8.848362416515E-01 -8.819278388590E-01
 -8.790164015900E-01 -8.761019356689E-01 -8.731844469021E-01 -8.702639410776E-01
 -8.673404239654E-01 -8.644139013173E-01 -8.614843788674E-01 -8.585518623317E-01
 -8.556163574084E-01 -8.526778697780E-01 -8.497364051035E-01 -8.467919690300E-01
 -8.438445671855E-01 -8.408942051802E-01 -8.379408886072E-01 -8.349846230422E-01
 -8.320254140438E-01 -8.290632671533E-01 -8.260981878953E-01 -8.231301817770E-01
 -8.201592542889E-01 -8.171854109048E-01 -8.142086570815E-01 -8.112289982591E-01
 -8.082464398614E-01 -8.052609872954E-01 -8.022726459516E-01 -7.992814212042E-01
 -7.962873184111E-01 -7.932903429138E-01 -7.902905000377E-01 -7.872877950920E-01
 -7.842822333700E-01 -7.812738201488E-01 -7.782625606898E-01 -7.752484602383E-01
 -7.722315240239E-01 -7.692117572607E-01 -7.661891651468E-01 -7.631637528649E-01
 -7.601355255822E-01 -7.571044884502E-01 -7.540706466054E-01 -7.510340051686E-01
 -7.479945692456E-01 -7.449523439268E-01 -7.419073342875E-01 -7.388595453881E-01
 -7.358089822738E-01 -7.327556499748E-01 -7.296995535067E-01 -7.266406978699E-01
 -7.235790880502E-01 -7.205147290189E-01 -7.174476257323E-01 -7.143777831324E-01
 -7.113052061464E-01 -7.082298996873E-01 -7.051518686535E-01 -7.020711179292E-01
 -6.989876523843E-01 -6.959014768743E-01 -6.928125962407E-01 -6.897210153108E-01
 -6.866267388979E-01 -6.835297718014E-01 -6.804301188064E-01 -6.773277846845E-01
 -6.742227741933E-01 -6.711150920767E-01 -6.680047430648E-01 -6.648917318740E-01
 -6.617760632073E-01 -6.586577417539E-01 -6.555367721896E-01 -6.524131591769E-01
 -6.492869073648E-01 -6.461580213888E-01 -6.430265058714E-01 -6.398923654217E-01
 -6.367556046357E-01 -6.336162280962E-01 -6.304742403731E-01 -6.273296460230E-01
 -6.241824495898E-01 -6.210326556043E-01 -6.178802685846E-01 -6.147252930359E-01
 -6.115677334507E-01 -6.084075943086E-01 -6.052448800768E-01 -6.020795952097E-01
 -5.989117441492E-01 -5.957413313248E-01 -5.925683611533E-01 -5.893928380393E-01
 -5.862147663749E-01 -5.830341505401E-01 -5.798509949023E-01 -5.766653038169E-01
 -5.734770816272E-01 -5.702863326642E-01 -5.670930612468E-01 -5.638972716821E-01
 -5.606989682650E-01 -5.574981552786E-01 -5.542948369940E-01 -5.510890176705E-01
 -5.478807015557E-01 -5.446698928853E-01 -5.414565958833E-01 -5.382408147623E-01
 -5.350225537228E-01 -5.318018169543E-01 -5.285786086343E-01 -5.253529329290E-01
 -5.221247939933E-01 -5.188941959704E-01 -5.156611429924E-01 -5.124256391801E-01
 -5.091876886429E-01 -5.059472954789E-01 -5.027044637754E-01 -4.994591976081E-01
 -4.962115010419E-01 -4.929613781306E-01 -4.897088329170E-01 -4.864538694328E-01
 -4.831964916989E-01 -4.799367037254E-01 -4.766745095114E-01 -4.734099130452E-01
 -4.701429183044E-01 -4.668735292559E-01 -4.636017498558E-01 -4.603275840498E-01
 -4.570510357728E-01 -4.537721089491E-01 -4.504908074927E-01 -4.472071353069E-01
 -4.439210962847E-01 -4.406326943087E-01 -4.373419332509E-01 -4.340488169734E-01
 -4.307533493276E-01 -4.274555341548E-01 -4.241553752863E-01 -4.208528765429E-01
 -4.175480417354E-01 -4.142408746646E-01 -4.109313791211E-01 -4.076195588856E-01
 -4.043054177286E-01 -4.009889594110E-01 -3.976701876834E-01 -3.943491062869E-01
 -3.910257189524E-01 -3.877000294012E-01 -3.843720413449E-01 -3.810417584853E-01
 -3.777091845143E-01 -3.743743231145E-01 -3.710371779586E-01 -3.676977527099E-01
 -3.643560510219E-01 -3.610120765389E-01 -3.576658328954E-01 -3.543173237168E-01
 -3.509665526187E-01 -3.476135232076E-01 -3.442582390805E-01 -3.409007038252E-01
 -3.375409210201E-01 -3.341788942345E-01 -3.308146270284E-01 -3.274481229525E-01
 -3.240793855487E-01 -3.207084183493E-01 -3.173352248780E-01 -3.139598086492E-01
 -3.105821731682E-01 -3.072023219315E-01 -3.038202584267E-01 -3.004359861322E-01
 -2.970495085178E-01 -2.936608290442E-01 -2.902699511635E-01 -2.868768783189E-01
 -2.834816139448E-01 -2.800841614670E-01 -2.766845243024E-01 -2.732827058595E-01
 -2.698787095378E-01 -2.664725387286E-01 -2.630641968143E-01 -2.596536871690E-01
 -2.562410131581E-01 -2.528261781386E-01 -2.494091854589E-01 -2.459900384593E-01
 -2.425687404714E-01 -2.391452948185E-01 -2.357197048156E-01 -2.322919737694E-01
 -2.288621049784E-01 -2.254301017327E-01 -2.219959673142E-01 -2.185597049966E-01
 -2.151213180456E-01 -2.116808097185E-01 -2.082381832648E-01 -2.047934419257E-01
 -2.013465889343E-01 -1.978976275159E-01 -1.944465608876E-01 -1.909933922586E-01
 -1.875381248303E-01 -1.840807617960E-01 -1.806213063411E-01 -1.771597616434E-01
 -1.736961308725E-01 -1.702304171905E-01 -1.667626237515E-01 -1.632927537021E-01
 -1.598208101809E-01 -1.563467963190E-01 -1.528707152398E-01 -1.493925700589E-01
 -1.459123638844E-01 -1.424300998170E-01 -1.389457809494E-01 -1.354594103672E-01
 -1.319709911481E-01 -1.284805263626E-01 -1.249880190737E-01 -1.214934723367E-01
 -1.179968891997E-01 -1.144982727035E-01 -1.109976258814E-01 -1.074949517594E-01
 -1.039902533561E-01 -1.004835336828E-01 -9.697479574381E-02 -9.346404253589E-02
 -8.995127704871E-02 -8.643650226476E-02 -8.291972115932E-02 -7.940093670056E-02
 -7.588015184950E-02 -7.235736956009E-02 -6.883259277920E-02 -6.530582444666E-02
 -6.177706749524E-02 -5.824632485076E-02 -5.471359943203E-02 -5.117889415091E-02
 -4.764221191233E-02 -4.410355561432E-02 -4.056292814800E-02 -3.702033239767E-02
 -3.347577124074E-02 -2.992924754784E-02 -2.638076418279E-02 -2.283032400265E-02
 -1.927792985770E-02 -1.572358459153E-02 -1.216729104100E-02 -8.609052036299E-03
 -5.048870400944E-03 -1.486748951821E-03  2.077309500805E-03  5.643302153264E-03
  9.211226208459E-03  1.278107887585E-02  1.635285737143E-02  1.992655891768E-02
  2.350218074361E-02  2.707972008467E-02  3.065917418275E-02  3.424054028618E-02
  3.782381564971E-02  4.140899753443E-02  4.499608320784E-02  4.858506994375E-02
  5.217595502230E-02  5.576873572995E-02  5.936340935941E-02  6.295997320967E-02
  6.655842458596E-02  7.015876079973E-02  7.376097916862E-02  7.736507701647E-02
  8.097105167325E-02  8.457890047510E-02  8.818862076428E-02  9.180020988912E-02
  9.541366520407E-02  9.902898406963E-02  1.026461638523E-01  1.062652019247E-01
  1.098860956654E-01  1.135088424588E-01  1.171334396957E-01  1.207598847723E-01
  1.243881750911E-01  1.280183080604E-01  1.316502810944E-01  1.352840916132E-01
  1.389197370426E-01  1.425572148145E-01  1.461965223663E-01  1.498376571415E-01
  1.534806165893E-01  1.571253981644E-01  1.607719993276E-01  1.644204175453E-01
  1.680706502895E-01  1.717226950380E-01  1.753765492743E-01  1.790322104874E-01
  1.826896761721E-01  1.863489438287E-01  1.900100109632E-01  1.936728750872E-01
  1.973375337176E-01  2.010039843772E-01  2.046722245942E-01  2.083422519022E-01
  2.120140638404E-01  2.156876579535E-01  2.193630317917E-01  2.230401829104E-01
  2.267191088708E-01  2.303998072392E-01  2.340822755875E-01  2.377665114927E-01
  2.414525125376E-01  2.451402763099E-01  2.488298004030E-01  2.525210824152E-01
  2.562141199506E-01  2.599089106181E-01  2.636054520322E-01  2.673037418125E-01
  2.710037775838E-01  2.747055569762E-01  2.784090776250E-01  2.821143371707E-01
  2.858213332587E-01  2.895300635400E-01  2.932405256704E-01  2.969527173109E-01
  3.006666361277E-01  3.043822797919E-01  3.080996459800E-01  3.118187323732E-01
  3.155395366578E-01  3.192620565255E-01  3.229862896724E-01  3.267122338002E-01
  3.304398866152E-01  3.341692458287E-01  3.379003091572E-01  3.416330743218E-01
  3.453675390487E-01  3.491037010691E-01  3.528415581190E-01  3.565811079391E-01
  3.603223482752E-01  3.640652768780E-01  3.678098915027E-01  3.715561899096E-01
  3.753041698638E-01  3.790538291351E-01  3.828051654981E-01  3.865581767320E-01
  3.903128606211E-01  3.940692149542E-01  3.978272375248E-01  4.015869261312E-01
  4.053482785764E-01  4.091112926679E-01  4.128759662181E-01  4.166422970439E-01
  4.204102829670E-01  4.241799218134E-01  4.279512114141E-01  4.317241496044E-01
  4.354987342243E-01  4.392749631183E-01  4.430528341357E-01  4.468323451299E-01
  4.506134939593E-01  4.543962784864E-01  4.581806965786E-01  4.619667461074E-01
  4.657544249490E-01  4.695437309840E-01  4.733346620975E-01  4.771272161790E-01
  4.809213911224E-01  4.847171848261E-01  4.885145951927E-01  4.923136201294E-01
  4.961142575477E-01  4.999165053633E-01  5.037203614965E-01  5.075258238718E-01
  5.113328904180E-01  5.151415590682E-01  5.189518277600E-01  5.227636944350E-01
  5.265771570392E-01  5.303922135229E-01  5.342088618405E-01  5.380270999508E-01
  5.418469258168E-01  5.456683374055E-01  5.494913326884E-01  5.533159096410E-01
  5.571420662429E-01  5.609698004782E-01  5.647991103347E-01  5.686299938047E-01
  5.724624488844E-01  5.762964735742E-01  5.801320658786E-01  5.839692238063E-01
  5.878079453698E-01  5.916482285859E-01  5.954900714754E-01  5.993334720631E-01
  6.031784283779E-01  6.070249384527E-01  6.108730003243E-01  6.147226120336E-01
  6.185737716255E-01  6.224264771489E-01  6.262807266565E-01  6.301365182052E-01
  6.339938498556E-01  6.378527196723E-01  6.417131257239E-01  6.455750660829E-01
  6.494385388256E-01  6.533035420323E-01  6.571700737871E-01  6.610381321779E-01
  6.649077152966E-01  6.687788212388E-01  6.726514481042E-01  6.765255939959E-01
  6.804012570211E-01  6.842784352908E-01  6.881571269197E-01  6.920373300263E-01
  6.959190427329E-01  6.998022631654E-01  7.036869894537E-01  7.075732197313E-01
  7.114609521353E-01  7.153501848068E-01  7.192409158904E-01  7.231331435344E-01
  7.270268658910E-01  7.309220811157E-01  7.348187873680E-01  7.387169828108E-01
  7.426166656109E-01  7.465178339386E-01  7.504204859677E-01  7.543246198758E-01
  7.582302338441E-01  7.621373260573E-01  7.660458947037E-01  7.699559379751E-01
  7.738674540672E-01  7.777804411788E-01  7.816948975125E-01  7.856108212745E-01
  7.895282106742E-01  7.934470639250E-01  7.973673792433E-01  8.012891548493E-01
  8.052123889667E-01  8.091370798226E-01  8.130632256474E-01  8.169908246753E-01
  8.209198751436E-01  8.248503752934E-01  8.287823233689E-01  8.327157176180E-01
  8.366505562917E-01  8.405868376446E-01  8.445245599348E-01  8.484637214235E-01
  8.524043203756E-01  8.563463550590E-01  8.602898237453E-01  8.642347247092E-01
  8.681810562288E-01  8.721288165857E-01  8.760780040646E-01  8.800286169535E-01
  8.839806535440E-01  8.879341121306E-01  8.918889910114E-01  8.958452884876E-01
  8.998030028637E-01  9.037621324475E-01  9.077226755501E-01  9.116846304856E-01
  9.156479955715E-01  9.196127691287E-01  9.235789494810E-01  9.275465349556E-01
  9.315155238828E-01  9.354859145962E-01  9.394577054324E-01  9.434308947314E-01
  9.474054808361E-01  9.513814620928E-01  9.553588368509E-01  9.593376034628E-01
  9.633177602841E-01  9.672993056736E-01  9.712822379932E-01  9.752665556077E-01
  9.792522568853E-01  9.832393401971E-01  9.872278039174E-01  9.912176464234E-01
  9.952088660954E-01  9.992014613170E-01  1.003195430475E+00  1.007190771958E+00
  1.011187484159E+00  1.015185565474E+00  1.019185014301E+00  1.023185829041E+00
  1.027188008101E+00  1.031191549886E+00  1.035196452807E+00  1.039202715279E+00
  1.043210335718E+00  1.047219312543E+00  1.051229644176E+00  1.055241329043E+00
  1.059254365572E+00  1.063268752195E+00  1.067284487346E+00  1.071301569462E+00
  1.075319996982E+00  1.079339768350E+00  1.083360882012E+00  1.087383336416E+00
  1.091407130014E+00  1.095432261260E+00  1.099458728611E+00  1.103486530529E+00
  1.107515665475E+00  1.111546131915E+00  1.115577928319E+00  1.119611053157E+00
  1.123645504905E+00  1.127681282038E+00  1.131718383038E+00  1.135756806387E+00
  1.139796550570E+00  1.143837614076E+00  1.147879995396E+00  1.151923693024E+00
  1.155968705456E+00  1.160015031192E+00  1.164062668733E+00  1.168111616586E+00
  1.172161873256E+00  1.176213437256E+00  1.180266307097E+00  1.184320481295E+00
  1.188375958370E+00  1.192432736842E+00  1.196490815235E+00  1.200550192075E+00
  1.204610865893E+00  1.208672835219E+00  1.212736098588E+00  1.216800654538E+00
  1.220866501609E+00  1.224933638342E+00  1.229002063284E+00  1.233071774981E+00
  1.237142771985E+00  1.241215052848E+00  1.245288616126E+00  1.249363460378E+00
  1.253439584164E+00  1.257516986047E+00  1.261595664595E+00  1.265675618374E+00
  1.269756845957E+00  1.273839345917E+00  1.277923116831E+00  1.282008157278E+00
  1.286094465838E+00  1.290182041096E+00  1.294270881639E+00  1.298360986055E+00
  1.302452352936E+00  1.306544980876E+00  1.310638868471E+00  1.314734014322E+00
  1.318830417028E+00  1.322928075195E+00  1.327026987429E+00  1.331127152338E+00
  1.335228568535E+00  1.339331234634E+00  1.343435149250E+00  1.347540311003E+00
  1.351646718514E+00  1.355754370407E+00  1.359863265308E+00  1.363973401846E+00
  1.368084778652E+00  1.372197394358E+00  1.376311247602E+00  1.380426337022E+00
  1.384542661257E+00  1.388660218952E+00  1.392779008752E+00  1.396899029304E+00
  1.401020279259E+00  1.405142757270E+00  1.409266461991E+00  1.413391392080E+00
  1.417517546197E+00  1.421644923003E+00  1.425773521163E+00  1.429903339344E+00
  1.434034376214E+00  1.438166630446E+00  1.442300100713E+00  1.446434785690E+00
  1.450570684057E+00  1.454707794493E+00  1.458846115683E+00  1.462985646310E+00
  1.467126385063E+00  1.471268330631E+00  1.475411481706E+00  1.479555836983E+00
  1.483701395158E+00  1.487848154931E+00  1.491996115001E+00  1.496145274073E+00
  1.500295630852E+00  1.504447184047E+00  1.508599932366E+00  1.512753874523E+00
  1.516909009231E+00  1.521065335208E+00  1.525222851173E+00  1.529381555846E+00
  1.533541447951E+00  1.537702526213E+00  1.541864789361E+00  1.546028236124E+00
  1.550192865235E+00  1.554358675427E+00  1.558525665436E+00  1.562693834003E+00
  1.566863179866E+00  1.571033701770E+00  1.575205398459E+00  1.579378268680E+00
  1.583552311183E+00  1.587727524719E+00  1.591903908042E+00  1.596081459908E+00
  1.600260179073E+00  1.604440064300E+00  1.608621114348E+00  1.612803327983E+00
  1.616986703970E+00  1.621171241079E+00  1.625356938079E+00  1.629543793743E+00
  1.633731806846E+00  1.637920976164E+00  1.642111300476E+00  1.646302778562E+00
  1.650495409206E+00  1.654689191193E+00  1.658884123309E+00  1.663080204344E+00
  1.667277433088E+00  1.671475808334E+00  1.675675328879E+00  1.679875993518E+00
  1.684077801050E+00  1.688280750278E+00  1.692484840004E+00  1.696690069034E+00
  1.700896436174E+00  1.705103940234E+00  1.709312580024E+00  1.713522354359E+00
  1.717733262053E+00  1.721945301923E+00  1.726158472789E+00  1.730372773471E+00
  1.734588202792E+00  1.738804759578E+00  1.743022442654E+00  1.747241250852E+00
  1.751461183000E+00  1.755682237932E+00  1.759904414482E+00  1.764127711488E+00
  1.768352127787E+00  1.772577662220E+00  1.776804313630E+00  1.781032080861E+00
  1.785260962759E+00  1.789490958172E+00  1.793722065951E+00  1.797954284946E+00
  1.802187614013E+00  1.806422052007E+00  1.810657597784E+00  1.814894250206E+00
  1.819132008133E+00  1.823370870428E+00  1.827610835957E+00  1.831851903587E+00
  1.836094072185E+00  1.840337340624E+00  1.844581707775E+00  1.848827172513E+00
  1.853073733714E+00  1.857321390256E+00  1.861570141019E+00  1.865819984885E+00
  1.870070920737E+00  1.874322947461E+00  1.878576063943E+00  1.882830269073E+00
  1.887085561741E+00  1.891341940841E+00  1.895599405266E+00  1.899857953913E+00
  1.904117585679E+00  1.908378299465E+00  1.912640094172E+00  1.916902968703E+00
  1.921166921964E+00  1.925431952861E+00  1.929698060302E+00  1.933965243200E+00
  1.938233500464E+00  1.942502831011E+00  1.946773233754E+00  1.951044707612E+00
  1.955317251504E+00  1.959590864350E+00  1.963865545074E+00  1.968141292599E+00
  1.972418105852E+00  1.976695983761E+00  1.980974925255E+00  1.985254929266E+00
  1.989535994726E+00  1.993818120570E+00  1.998101305734E+00  2.002385549158E+00
  2.006670849780E+00  2.010957206541E+00  2.015244618386E+00  2.019533084260E+00
  2.023822603107E+00  2.028113173878E+00  2.032404795521E+00  2.036697466988E+00
  2.040991187233E+00  2.045285955211E+00  2.049581769878E+00  2.053878630192E+00
  2.058176535113E+00  2.062475483603E+00  2.066775474624E+00  2.071076507143E+00
  2.075378580125E+00  2.079681692538E+00  2.083985843352E+00  2.088291031538E+00
  2.092597256070E+00  2.096904515922E+00  2.101212810070E+00  2.105522137492E+00
  2.109832497168E+00  2.114143888078E+00  2.118456309205E+00  2.122769759534E+00
  2.127084238050E+00  2.131399743741E+00  2.135716275596E+00  2.140033832605E+00
  2.144352413760E+00  2.148672018057E+00  2.152992644489E+00  2.157314292053E+00
  2.161636959749E+00  2.165960646576E+00  2.170285351536E+00  2.174611073632E+00
  2.178937811869E+00  2.183265565253E+00  2.187594332792E+00  2.191924113495E+00
  2.196254906374E+00  2.200586710440E+00  2.204919524708E+00  2.209253348193E+00
  2.213588179912E+00  2.217924018885E+00  2.222260864130E+00  2.226598714670E+00
  2.230937569528E+00  2.235277427728E+00  2.239618288297E+00  2.243960150262E+00
  2.248303012652E+00  2.252646874499E+00  2.256991734833E+00  2.261337592690E+00
  2.265684447104E+00  2.270032297111E+00  2.274381141750E+00  2.278730980060E+00
  2.283081811083E+00  2.287433633861E+00  2.291786447438E+00  2.296140250859E+00
  2.300495043172E+00  2.304850823425E+00  2.309207590667E+00  2.313565343950E+00
  2.317924082327E+00  2.322283804853E+00  2.326644510581E+00  2.331006198571E+00
  2.335368867880E+00  2.339732517568E+00  2.344097146697E+00  2.348462754329E+00
  2.352829339530E+00  2.357196901363E+00  2.361565438898E+00  2.365934951201E+00
  2.370305437344E+00  2.374676896397E+00  2.379049327434E+00  2.383422729528E+00
  2.387797101755E+00  2.392172443192E+00  2.396548752918E+00  2.400926030011E+00
  2.405304273554E+00  2.409683482629E+00  2.414063656319E+00  2.418444793711E+00
  2.422826893891E+00  2.427209955946E+00  2.431593978967E+00  2.435978962044E+00
  2.440364904270E+00  2.444751804737E+00  2.449139662542E+00  2.453528476779E+00
  2.457918246547E+00  2.462308970945E+00  2.466700649074E+00  2.471093280033E+00
  2.475486862928E+00  2.479881396862E+00  2.484276880941E+00  2.488673314272E+00
  2.493070695963E+00  2.497469025125E+00  2.501868300867E+00  2.506268522303E+00
  2.510669688547E+00  2.515071798712E+00  2.519474851916E+00  2.523878847277E+00
  2.528283783912E+00  2.532689660944E+00  2.537096477492E+00  2.541504232680E+00
  2.545912925632E+00  2.550322555474E+00  2.554733121332E+00  2.559144622335E+00
  2.563557057612E+00  2.567970426293E+00  2.572384727510E+00  2.576799960398E+00
  2.581216124089E+00  2.585633217720E+00  2.590051240429E+00  2.594470191353E+00
  2.598890069631E+00  2.603310874406E+00  2.607732604819E+00  2.612155260013E+00
  2.616578839132E+00  2.621003341324E+00  2.625428765735E+00  2.629855111514E+00
  2.634282377809E+00  2.638710563773E+00  2.643139668557E+00  2.647569691315E+00
  2.652000631200E+00  2.656432487370E+00  2.660865258982E+00  2.665298945193E+00
  2.669733545163E+00  2.674169058053E+00  2.678605483025E+00  2.683042819242E+00
  2.687481065869E+00  2.691920222071E+00  2.696360287016E+00  2.700801259871E+00
  2.705243139806E+00  2.709685925991E+00  2.714129617597E+00  2.718574213799E+00
  2.723019713770E+00  2.727466116685E+00  2.731913421721E+00  2.736361628055E+00
  2.740810734867E+00  2.745260741336E+00  2.749711646644E+00  2.754163449974E+00
  2.758616150508E+00  2.763069747432E+00  2.767524239931E+00  2.771979627194E+00
  2.776435908408E+00  2.780893082762E+00  2.785351149448E+00  2.789810107657E+00
  2.794269956582E+00  2.798730695418E+00  2.803192323359E+00  2.807654839602E+00
  2.812118243345E+00  2.816582533787E+00  2.821047710127E+00  2.825513771567E+00
  2.829980717308E+00  2.834448546554E+00  2.838917258510E+00  2.843386852381E+00
  2.847857327374E+00  2.852328682697E+00  2.856800917558E+00  2.861274031169E+00
  2.865748022739E+00  2.870222891483E+00  2.874698636612E+00  2.879175257342E+00
  2.883652752889E+00  2.888131122469E+00  2.892610365301E+00  2.897090480603E+00
  2.901571467596E+00  2.906053325500E+00  2.910536053539E+00  2.915019650936E+00
  2.919504116915E+00  2.923989450702E+00  2.928475651525E+00  2.932962718610E+00
  2.937450651187E+00  2.941939448485E+00  2.946429109737E+00  2.950919634174E+00
  2.955411021030E+00  2.959903269538E+00  2.964396378935E+00  2.968890348457E+00
  2.973385177341E+00  2.977880864827E+00  2.982377410154E+00  2.986874812563E+00
  2.991373071295E+00  2.995872185594E+00  3.000372154704E+00  3.004872977870E+00
  3.009374654338E+00  3.013877183354E+00  3.018380564169E+00  3.022884796030E+00
  3.027389878187E+00  3.031895809894E+00  3.036402590401E+00  3.040910218962E+00
  3.045418694832E+00  3.049928017267E+00  3.054438185522E+00  3.058949198857E+00
  3.063461056528E+00  3.067973757796E+00  3.072487301922E+00  3.077001688167E+00
  3.081516915794E+00  3.086032984068E+00  3.090549892252E+00  3.095067639612E+00
  3.099586225416E+00  3.104105648931E+00  3.108625909427E+00  3.113147006172E+00
  3.117668938438E+00  3.122191705497E+00  3.126715306622E+00  3.131239741086E+00
  3.135765008165E+00  3.140291107134E+00  3.144818037270E+00  3.149345797852E+00
  3.153874388157E+00  3.158403807467E+00  3.162934055062E+00  3.167465130223E+00
  3.171997032234E+00  3.176529760378E+00  3.181063313940E+00  3.185597692207E+00
  3.190132894464E+00  3.194668919999E+00  3.199205768102E+00  3.203743438062E+00
  3.208281929169E+00  3.212821240716E+00  3.217361371994E+00  3.221902322298E+00
  3.226444090921E+00  3.230986677160E+00  3.235530080311E+00  3.240074299671E+00
  3.244619334539E+00  3.249165184214E+00  3.253711847996E+00  3.258259325186E+00
  3.262807615087E+00  3.267356717002E+00  3.271906630235E+00  3.276457354091E+00
  3.281008887875E+00  3.285561230895E+00  3.290114382458E+00  3.294668341874E+00
  3.299223108452E+00  3.303778681502E+00  3.308335060337E+00  3.312892244268E+00
  3.317450232610E+00  3.322009024676E+00  3.326568619781E+00  3.331129017243E+00
  3.335690216378E+00  3.340252216503E+00  3.344815016939E+00  3.349378617005E+00
  3.353943016022E+00  3.358508213311E+00  3.363074208195E+00  3.367640999997E+00
  3.372208588043E+00  3.376776971657E+00  3.381346150165E+00  3.385916122895E+00
  3.390486889175E+00  3.395058448334E+00  3.399630799701E+00  3.404203942608E+00
  3.408777876385E+00  3.413352600365E+00  3.417928113883E+00  3.422504416272E+00
  3.427081506866E+00  3.431659385004E+00  3.436238050020E+00  3.440817501254E+00
  3.445397738044E+00  3.449978759729E+00  3.454560565650E+00  3.459143155148E+00
  3.463726527566E+00  3.468310682246E+00  3.472895618534E+00  3.477481335772E+00
  3.482067833308E+00  3.486655110487E+00  3.491243166658E+00  3.495832001168E+00
  3.500421613367E+00  3.505012002604E+00  3.509603168231E+00  3.514195109599E+00
  3.518787826061E+00  3.523381316970E+00  3.527975581681E+00  3.532570619549E+00
  3.537166429929E+00  3.541763012179E+00  3.546360365656E+00  3.550958489719E+00
  3.555557383728E+00  3.560157047042E+00  3.564757479022E+00  3.569358679031E+00
  3.573960646431E+00  3.578563380585E+00  3.583166880859E+00  3.587771146617E+00
  3.592376177225E+00  3.596981972051E+00  3.601588530462E+00  3.606195851826E+00
  3.610803935514E+00  3.615412780894E+00  3.620022387339E+00  3.624632754220E+00
  3.629243880909E+00  3.633855766781E+00  3.638468411209E+00  3.643081813568E+00
  3.647695973235E+00  3.652310889587E+00  3.656926562000E+00  3.661542989853E+00
  3.666160172525E+00  3.670778109397E+00  3.675396799848E+00  3.680016243262E+00
  3.684636439019E+00  3.689257386503E+00  3.693879085098E+00  3.698501534189E+00
  3.703124733161E+00  3.707748681402E+00  3.712373378297E+00  3.716998823235E+00
  3.721625015604E+00  3.726251954794E+00  3.730879640196E+00  3.735508071201E+00
  3.740137247199E+00  3.744767167585E+00  3.749397831751E+00  3.754029239091E+00
  3.758661389002E+00  3.763294280877E+00  3.767927914115E+00  3.772562288112E+00
  3.777197402266E+00  3.781833255976E+00  3.786469848642E+00  3.791107179665E+00
  3.795745248445E+00  3.800384054384E+00  3.805023596886E+00  3.809663875353E+00
  3.814304889189E+00  3.818946637801E+00  3.823589120593E+00  3.828232336972E+00
  3.832876286345E+00  3.837520968121E+00  3.842166381708E+00  3.846812526515E+00
  3.851459401953E+00  3.856107007433E+00  3.860755342367E+00  3.865404406167E+00
  3.870054198246E+00  3.874704718019E+00  3.879355964900E+00  3.884007938305E+00
  3.888660637650E+00  3.893314062352E+00  3.897968211829E+00  3.902623085498E+00
  3.907278682780E+00  3.911935003095E+00  3.916592045862E+00  3.921249810503E+00
  3.925908296441E+00  3.930567503099E+00  3.935227429899E+00  3.939888076266E+00
  3.944549441625E+00  3.949211525403E+00  3.953874327024E+00  3.958537845918E+00
  3.963202081511E+00  3.967867033232E+00  3.972532700511E+00  3.977199082777E+00
  3.981866179461E+00  3.986533989996E+00  3.991202513813E+00  3.995871750344E+00
  4.000541699025E+00  4.005212359288E+00  4.009883730569E+00  4.014555812305E+00
  6.213101874943E+01  6.213101874943E+01  6.213101874943E+01  6.213101874943E+01
  6.213101874943E+01  6.213101874943E+01  6.213101874943E+01  6.213101874943E+01
  6.213101874943E+01  6.213101874943E+01  6.213101874943E+01  6.213101874943E+01
  6.213101874943E+01  6.213101874943E+01  6.213101874943E+01  6.213101874943E+01
  6.213101874943E+01  6.213101874943E+01  6.213101874943E+01  6.213101874943E+01
  6.213101874943E+01  6.213101874943E+01  6.213101874943E+01  6.213101874943E+01
  6.213101874943E+01  6.213101874943E+01  6.213101874943E+01  6.213101874943E+01
  6.213101874943E+01  6.213101874943E+01  6.213101874943E+01  6.213101874943E+01
  6.213101874943E+01  6.213101874943E+01  6.213101874943E+01  6.213101874943E+01
  6.213101874943E+01  6.213101874943E+01  6.213101874943E+01  6.213101874943E+01
  6.213101874943E+01  6.213101874943E+01  6.213101874943E+01  6.213101874943E+01
  6.213101874943E+01  6.213101874943E+01  6.213101874943E+01  6.213101874943E+01
  6.213101874943E+01  6.213101874943E+01  6.213101874943E+01  6.213101874943E+01
  6.213101874943E+01  6.213101874943E+01  6.213101874943E+01  6.213101874943E+01
  6.213101874943E+01  6.213101874943E+01  6.213101874943E+01  6.213101874943E+01
  6.213101874943E+01  6.213101874943E+01  6.213101874943E+01  6.213101874943E+01
  6.213101874943E+01  6.213101874943E+01  6.213101874943E+01  6.213101874943E+01
  6.213101874943E+01  6.213101874943E+01  6.213101874943E+01  6.213101874943E+01
  6.213101874943E+01  6.213101874943E+01  6.213101874943E+01  6.213101874943E+01
  6.213101874943E+01  6.213101874943E+01  6.213101874943E+01  6.213101874943E+01
  6.213101874943E+01  6.213101874943E+01  6.213101874943E+01  6.213101874943E+01
  6.213101874943E+01  6.213101874943E+01  6.213101874943E+01  6.213101874943E+01
  6.213101874943E+01  6.213101874943E+01  6.213101874943E+01  6.213101874943E+01
  6.213101874943E+01  6.213101874943E+01  6.213101874943E+01  6.213101874943E+01
  6.213101874943E+01  6.213101874943E+01  6.213101874943E+01  6.213101874943E+01
  6.213101874943E+01  6.213101874943E+01  6.213101874943E+01  6.213101874943E+01
  6.213101874943E+01  6.213101874943E+01  6.213101874943E+01  6.213101874943E+01
  6.213101874943E+01  6.213101874943E+01  6.213101874943E+01  6.213101874943E+01
  6.213101874943E+01  6.213101874943E+01  6.213101874943E+01  6.213101874943E+01
  6.213101874943E+01  6.213101874943E+01  6.213101874943E+01  6.213101874943E+01
  6.213101874943E+01  6.213101874943E+01  6.213101874943E+01  6.213101874943E+01
  6.213101874943E+01  6.213101874943E+01  6.213101874943E+01  6.213101874943E+01
  6.213101874943E+01  6.213101874943E+01  6.213101874943E+01  6.213101874943E+01
  6.213101874943E+01  6.213101874943E+01  6.213101874943E+01  6.213101874943E+01
  6.213101874943E+01  6.213101874943E+01  6.213101874943E+01  6.213101874943E+01
  6.213101874943E+01  6.213101874943E+01  6.213101874943E+01  6.213101874943E+01
  6.213101874943E+01  6.213101874943E+01  6.213101874943E+01  6.213101874943E+01
  6.213101874943E+01  6.213101874943E+01  6.213101874943E+01  6.213101874943E+01
  6.213101874943E+01  6.213101874943E+01  6.213101874943E+01  6.198592448153E+01
  6.164918299852E+01  6.131426944805E+01  6.098117396429E+01  6.064988673248E+01
  6.032039798877E+01  5.999269802003E+01  5.966677716365E+01  5.934262580738E+01
  5.902023438908E+01  5.869959339657E+01  5.838069336742E+01  5.806352488876E+01
  5.774807859705E+01  5.743434517792E+01  5.712231536593E+01  5.681197994440E+01
  5.650332974518E+01  5.619635564845E+01  5.589104858252E+01  5.558739952361E+01
  5.528539949565E+01  5.498503957008E+01  5.468631086561E+01  5.438920454804E+01
  5.409371183005E+01  5.379982397094E+01  5.350753227649E+01  5.321682809869E+01
  5.292770283556E+01  5.264014793091E+01  5.235415487415E+01  5.206971520008E+01
  5.178682048864E+01  5.150546236475E+01  5.122563249805E+01  5.094732260271E+01
  5.067052443721E+01  5.039522980412E+01  5.012143054991E+01  4.984911856472E+01
  4.957828578214E+01  4.930892417901E+01  4.904102577520E+01  4.877458263341E+01
  4.850958685895E+01  4.824603059953E+01  4.798390604503E+01  4.772320542733E+01
  4.746392102007E+01  4.720604513845E+01  4.694957013902E+01  4.669448841946E+01
  4.644079241840E+01  4.618847461518E+01  4.593752752965E+01  4.568794372201E+01
  4.543971579253E+01  4.519283638138E+01  4.494729816845E+01  4.470309387310E+01
  4.446021625399E+01  4.421865810887E+01  4.397841227436E+01  4.373947162578E+01
  4.350182907691E+01  4.326547757983E+01  4.303041012470E+01  4.279661973957E+01
  4.256409949017E+01  4.233284247971E+01  4.210284184873E+01  4.187409077483E+01
  4.164658247253E+01  4.142031019307E+01  4.119526722420E+01  4.097144688999E+01
  4.074884255065E+01  4.052744760235E+01  4.030725547697E+01  4.008825964201E+01
  3.987045360030E+01  3.965383088988E+01  3.943838508381E+01  3.922410978993E+01
  3.901099865074E+01  3.879904534317E+01  3.858824357844E+01  3.837858710183E+01
  3.817006969252E+01  3.796268516343E+01  3.775642736101E+01  3.755129016507E+01
  3.734726748859E+01  3.714435327759E+01  3.694254151089E+01  3.674182619998E+01
  3.654220138881E+01  3.634366115367E+01  3.614619960294E+01  3.594981087700E+01
  3.575448914798E+01  3.556022861965E+01  3.536702352723E+01  3.517486813721E+01
  3.498375674720E+01  3.479368368574E+01  3.460464331216E+01  3.441663001639E+01
  3.422963821881E+01  3.404366237010E+01  3.385869695104E+01  3.367473647238E+01
  3.349177547465E+01  3.330980852802E+01  3.312883023216E+01  3.294883521603E+01
  3.276981813774E+01  3.259177368445E+01  3.241469657210E+01  3.223858154537E+01
  3.206342337745E+01  3.188921686991E+01  3.171595685256E+01  3.154363818327E+01
  3.137225574783E+01  3.120180445982E+01  3.103227926042E+01  3.086367511829E+01
  3.069598702942E+01  3.052921001696E+01  3.036333913110E+01  3.019836944892E+01
  3.003429607420E+01  2.987111413735E+01  2.970881879522E+01  2.954740523094E+01
  2.938686865384E+01  2.922720429923E+01  2.906840742832E+01  2.891047332807E+01
  2.875339731102E+01  2.859717471518E+01  2.844180090388E+01  2.828727126563E+01
  2.813358121399E+01  2.798072618746E+01  2.782870164927E+01  2.767750308734E+01
  2.752712601406E+01  2.737756596624E+01  2.722881850489E+01  2.708087921516E+01
  2.693374370619E+01  2.678740761095E+01  2.664186658614E+01  2.649711631206E+01
  2.635315249248E+01  2.620997085449E+01  2.606756714842E+01  2.592593714767E+01
  2.578507664859E+01  2.564498147039E+01  2.550564745498E+01  2.536707046687E+01
  2.522924639301E+01  2.509217114273E+01  2.495584064755E+01  2.482025086112E+01
  2.468539775906E+01  2.455127733886E+01  2.441788561974E+01  2.428521864256E+01
  2.415327246970E+01  2.402204318490E+01  2.389152689320E+01  2.376171972080E+01
  2.363261781494E+01  2.350421734379E+01  2.337651449634E+01  2.324950548230E+01
  2.312318653195E+01  2.299755389605E+01  2.287260384576E+01  2.274833267246E+01
  2.262473668770E+01  2.250181222306E+01  2.237955563007E+01  2.225796328006E+01
  2.213703156409E+01  2.201675689281E+01  2.189713569639E+01  2.177816442438E+01
  2.165983954563E+01  2.154215754818E+01  2.142511493912E+01  2.130870824456E+01
  2.119293400945E+01  2.107778879753E+01  2.096326919120E+01  2.084937179144E+01
  2.073609321768E+01  2.062343010773E+01  2.051137911767E+01  2.039993692174E+01
  2.028910021224E+01  2.017886569946E+01  2.006923011156E+01  1.996019019446E+01
  1.985174271177E+01  1.974388444470E+01  1.963661219192E+01  1.952992276951E+01
  1.942381301085E+01  1.931827976652E+01  1.921331990420E+01  1.910893030860E+01
  1.900510788137E+01  1.890184954096E+01  1.879915222260E+01  1.869701287814E+01
  1.859542847601E+01  1.849439600111E+01  1.839391245470E+01  1.829397485436E+01
  1.819458023387E+01  1.809572564310E+01  1.799740814798E+01  1.789962483037E+01
  1.780237278798E+01  1.770564913430E+01  1.760945099848E+01  1.751377552529E+01
  1.741861987501E+01  1.732398122334E+01  1.722985676134E+01  1.713624369530E+01
  1.704313924673E+01  1.695054065220E+01  1.685844516332E+01  1.676685004663E+01
  1.667575258349E+01  1.658515007008E+01  1.649503981722E+01  1.640541915039E+01
  1.631628540956E+01  1.622763594918E+01  1.613946813806E+01  1.605177935930E+01
  1.596456701024E+01  1.587782850234E+01  1.579156126113E+01  1.570576272614E+01
  1.562043035079E+01  1.553556160235E+01  1.545115396185E+01  1.536720492401E+01
  1.528371199713E+01  1.520067270310E+01  1.511808457724E+01  1.503594516826E+01
  1.495425203821E+01  1.487300276235E+01  1.479219492916E+01  1.471182614019E+01
  1.463189401003E+01  1.455239616623E+01  1.447333024923E+01  1.439469391228E+01
  1.431648482141E+01  1.423870065530E+01  1.416133910526E+01  1.408439787513E+01
  1.400787468123E+01  1.393176725230E+01  1.385607332941E+01  1.378079066590E+01
  1.370591702731E+01  1.363145019135E+01  1.355738794777E+01  1.348372809835E+01
  1.341046845680E+01  1.333760684872E+01  1.326514111152E+01  1.319306909436E+01
  1.312138865808E+01  1.305009767515E+01  1.297919402960E+01  1.290867561694E+01
  1.283854034414E+01  1.276878612952E+01  1.269941090273E+01  1.263041260464E+01
  1.256178918734E+01  1.249353861403E+01  1.242565885898E+01  1.235814790745E+01
  1.229100375568E+01  1.222422441076E+01  1.215780789064E+01  1.209175222402E+01
  1.202605545031E+01  1.196071561958E+01  1.189573079249E+01  1.183109904025E+01
  1.176681844452E+01  1.170288709740E+01  1.163930310138E+01  1.157606456921E+01
  1.151316962393E+01  1.145061639877E+01  1.138840303709E+01  1.132652769236E+01
  1.126498852807E+01  1.120378371768E+01  1.114291144458E+01  1.108236990204E+01
  1.102215729314E+01  1.096227183071E+01  1.090271173731E+01  1.084347524515E+01
  1.078456059604E+01  1.072596604135E+01  1.066768984194E+01  1.060973026813E+01
  1.055208559962E+01  1.049475412550E+01  1.043773414409E+01  1.038102396302E+01
  1.032462189907E+01  1.026852627819E+01  1.021273543542E+01  1.015724771483E+01
  1.010206146950E+01  1.004717506147E+01  9.992586861663E+00  9.938295249855E+00
  9.884298614628E+00  9.830595353319E+00  9.777183871973E+00  9.724062585293E+00
  9.671229916596E+00  9.618684297768E+00  9.566424169212E+00  9.514447979805E+00
  9.462754186852E+00  9.411341256041E+00  9.360207661393E+00  9.309351885223E+00
  9.258772418090E+00  9.208467758756E+00  9.158436414138E+00  9.108676899264E+00
  9.059187737234E+00  9.009967459168E+00  8.961014604170E+00  8.912327719279E+00
  8.863905359429E+00  8.815746087407E+00  8.767848473805E+00  8.720211096986E+00
  8.672832543032E+00  8.625711405711E+00  8.578846286429E+00  8.532235794191E+00
  8.485878545562E+00  8.439773164621E+00  8.393918282922E+00  8.348312539457E+00
  8.302954580610E+00  8.257843060121E+00  8.212976639043E+00  8.168353985705E+00
  8.123973775671E+00  8.079834691701E+00  8.035935423711E+00  7.992274668735E+00
  7.948851130888E+00  7.905663521323E+00  7.862710558199E+00  7.819990966636E+00
  7.777503478683E+00  7.735246833277E+00  7.693219776207E+00  7.651421060076E+00
  7.609849444265E+00  7.568503694894E+00  7.527382584789E+00  7.486484893442E+00
  7.445809406977E+00  7.405354918113E+00  7.365120226128E+00  7.325104136823E+00
  7.285305462490E+00  7.245723021872E+00  7.206355640130E+00  7.167202148809E+00
  7.128261385801E+00  7.089532195314E+00  7.051013427834E+00  7.012703940093E+00
  6.974602595034E+00  6.936708261780E+00  6.899019815596E+00  6.861536137859E+00
  6.824256116023E+00  6.787178643586E+00  6.750302620061E+00  6.713626950936E+00
  6.677150547649E+00  6.640872327551E+00  6.604791213875E+00  6.568906135704E+00
  6.533216027941E+00  6.497719831275E+00  6.462416492150E+00  6.427304962734E+00
  6.392384200889E+00  6.357653170139E+00  6.323110839639E+00  6.288756184145E+00
  6.254588183983E+00  6.220605825020E+00  6.186808098631E+00  6.153194001674E+00
  6.119762536455E+00  6.086512710700E+00  6.053443537529E+00  6.020554035422E+00
  5.987843228192E+00  5.955310144956E+00  5.922953820106E+00  5.890773293280E+00
  5.858767609335E+00  5.826935818316E+00  5.795276975430E+00  5.763790141017E+00
  5.732474380522E+00  5.701328764470E+00  5.670352368432E+00  5.639544273004E+00
  5.608903563778E+00  5.578429331312E+00  5.548120671108E+00  5.517976683579E+00
  5.487996474028E+00  5.458179152617E+00  5.428523834346E+00  5.399029639021E+00
  5.369695691229E+00  5.340521120317E+00  5.311505060358E+00  5.282646650134E+00
  5.253945033103E+00  5.225399357379E+00  5.197008775703E+00  5.168772445419E+00
  5.140689528451E+00  5.112759191275E+00  5.084980604897E+00  5.057352944825E+00
  5.029875391049E+00  5.002547128012E+00  4.975367344590E+00  4.948335234065E+00
  4.921449994102E+00  4.894710826726E+00  4.868116938297E+00  4.841667539486E+00
  4.815361845255E+00  4.789199074830E+00  4.763178451678E+00  4.737299203486E+00
  4.711560562138E+00  4.685961763689E+00  4.660502048348E+00  4.635180660449E+00
  4.609996848433E+00  4.584949864824E+00  4.560038966208E+00  4.535263413209E+00
  4.510622470470E+00  4.486115406627E+00  4.461741494290E+00  4.437500010022E+00
  4.413390234318E+00  4.389411451579E+00  4.365562950095E+00  4.341844022024E+00
  4.318253963370E+00  4.294792073960E+00  4.271457657427E+00  4.248250021186E+00
  4.225168476416E+00  4.202212338038E+00  4.179380924696E+00  4.156673558736E+00
  4.134089566183E+00  4.111628276728E+00  4.089289023701E+00  4.067071144054E+00
  4.044973978345E+00  4.022996870710E+00  4.001139168853E+00  3.979400224017E+00
  3.957779390976E+00  3.936276028003E+00  3.914889496864E+00  3.893619162787E+00
  3.872464394453E+00  3.851424563972E+00  3.830499046863E+00  3.809687222041E+00
  3.788988471794E+00  3.768402181767E+00  3.747927740941E+00  3.727564541620E+00
  3.707311979408E+00  3.687169453190E+00  3.667136365123E+00  3.647212120606E+00
  3.627396128274E+00  3.607687799970E+00  3.588086550737E+00  3.568591798793E+00
  3.549202965518E+00  3.529919475437E+00  3.510740756200E+00  3.491666238567E+00
  3.472695356390E+00  3.453827546600E+00  3.435062249184E+00  3.416398907174E+00
  3.397836966626E+00  3.379375876606E+00  3.361015089176E+00  3.342754059371E+00
  3.324592245191E+00  3.306529107578E+00  3.288564110403E+00  3.270696720451E+00
  3.252926407403E+00  3.235252643822E+00  3.217674905137E+00  3.200192669627E+00
  3.182805418404E+00  3.165512635401E+00  3.148313807354E+00  3.131208423789E+00
  3.114195977003E+00  3.097275962054E+00  3.080447876742E+00  3.063711221596E+00
  3.047065499859E+00  3.030510217472E+00  3.014044883061E+00  2.997669007922E+00
  2.981382106006E+00  2.965183693903E+00  2.949073290834E+00  2.933050418627E+00
  2.917114601711E+00  2.901265367099E+00  2.885502244372E+00  2.869824765667E+00
  2.854232465666E+00  2.838724881576E+00  2.823301553119E+00  2.807962022519E+00
  2.792705834486E+00  2.777532536204E+00  2.762441677317E+00  2.747432809918E+00
  2.732505488529E+00  2.717659270097E+00  2.702893713975E+00  2.688208381907E+00
  2.673602838022E+00  2.659076648816E+00  2.644629383140E+00  2.630260612186E+00
  2.615969909480E+00  2.601756850860E+00  2.587621014472E+00  2.573561980754E+00
  2.559579332421E+00  2.545672654457E+00  2.531841534102E+00  2.518085560835E+00
  2.504404326370E+00  2.490797424636E+00  2.477264451769E+00  2.463805006099E+00
  2.450418688140E+00  2.437105100575E+00  2.423863848246E+00  2.410694538142E+00
  2.397596779387E+00  2.384570183229E+00  2.371614363029E+00  2.358728934246E+00
  2.345913514432E+00  2.333167723215E+00  2.320491182289E+00  2.307883515403E+00
  2.295344348354E+00  2.282873308967E+00  2.270470027093E+00  2.258134134592E+00
  2.245865265325E+00  2.233663055142E+00  2.221527141871E+00  2.209457165310E+00
  2.197452767211E+00  2.185513591274E+00  2.173639283135E+00  2.161829490356E+00
  2.150083862410E+00  2.138402050681E+00  2.126783708440E+00  2.115228490848E+00
  2.103736054935E+00  2.092306059597E+00  2.080938165583E+00  2.069632035484E+00
  2.058387333725E+00  2.047203726555E+00  2.036080882035E+00  2.025018470030E+00
  2.014016162200E+00  2.003073631985E+00  1.992190554604E+00  1.981366607038E+00
  1.970601468024E+00  1.959894818043E+00  1.949246339314E+00  1.938655715781E+00
  1.928122633106E+00  1.917646778659E+00  1.907227841507E+00  1.896865512409E+00
  1.886559483802E+00  1.876309449796E+00  1.866115106160E+00  1.855976150318E+00
  1.845892281339E+00  1.835863199924E+00  1.825888608403E+00  1.815968210722E+00
  1.806101712435E+00  1.796288820697E+00  1.786529244253E+00  1.776822693431E+00
  1.767168880133E+00  1.757567517827E+00  1.748018321535E+00  1.738521007830E+00
  1.729075294825E+00  1.719680902162E+00  1.710337551009E+00  1.701044964048E+00
  1.691802865467E+00  1.682610980953E+00  1.673469037684E+00  1.664376764319E+00
  1.655333890993E+00  1.646340149305E+00  1.637395272315E+00  1.628498994531E+00
  1.619651051905E+00  1.610851181822E+00  1.602099123096E+00  1.593394615957E+00
  1.584737402050E+00  1.576127224421E+00  1.567563827514E+00  1.559046957159E+00
  1.550576360570E+00  1.542151786332E+00  1.533772984397E+00  1.525439706075E+00
  1.517151704029E+00  1.508908732263E+00  1.500710546119E+00  1.492556902270E+00
  1.484447558707E+00  1.476382274740E+00  1.468360810984E+00  1.460382929355E+00
  1.452448393065E+00  1.444556966608E+00  1.436708415762E+00  1.428902507576E+00
  1.421139010362E+00  1.413417693696E+00  1.405738328401E+00  1.398100686549E+00
  1.390504541447E+00  1.382949667636E+00  1.375435840882E+00  1.367962838168E+00
  1.360530437689E+00  1.353138418845E+00  1.345786562236E+00  1.338474649653E+00
  1.331202464072E+00  1.323969789648E+00  1.316776411711E+00  1.309622116755E+00
  1.302506692435E+00  1.295429927559E+00  1.288391612083E+00  1.281391537105E+00
  1.274429494856E+00  1.267505278697E+00  1.260618683113E+00  1.253769503704E+00
  1.246957537179E+00  1.240182581356E+00  1.233444435147E+00  1.226742898559E+00
  1.220077772685E+00  1.213448859700E+00  1.206855962850E+00  1.200298886454E+00
  1.193777435893E+00  1.187291417604E+00  1.180840639078E+00  1.174424908850E+00
  1.168044036496E+00  1.161697832627E+00  1.155386108882E+00  1.149108677924E+00
  1.142865353435E+00  1.136655950106E+00  1.130480283639E+00  1.124338170734E+00
  1.118229429089E+00  1.112153877390E+00  1.106111335312E+00  1.100101623506E+00
  1.094124563600E+00  1.088179978188E+00  1.082267690833E+00  1.076387526051E+00
  1.070539309315E+00  1.064722867045E+00  1.058938026604E+00  1.053184616294E+00
  1.047462465350E+00  1.041771403932E+00  1.036111263125E+00  1.030481874933E+00
  1.024883072270E+00  1.019314688959E+00  1.013776559727E+00  1.008268520196E+00
  1.002790406885E+00  9.973420571983E-01  9.919233094243E-01  9.865340027304E-01
  9.811739771577E-01  9.758430736163E-01  9.705411338806E-01  9.652680005850E-01
  9.600235172185E-01  9.548075281206E-01  9.496198784767E-01  9.444604143131E-01
  9.393289824927E-01  9.342254307106E-01  9.291496074892E-01  9.241013621740E-01
  9.190805449290E-01  9.140870067324E-01  9.091205993720E-01  9.041811754406E-01
  8.992685883324E-01  8.943826922377E-01  8.895233421392E-01  8.846903938076E-01
  8.798837037969E-01  8.751031294409E-01  8.703485288481E-01  8.656197608983E-01
  8.609166852378E-01  8.562391622755E-01  8.515870531788E-01  8.469602198693E-01
  8.423585250189E-01  8.377818320456E-01  8.332300051094E-01  8.287029091086E-01
  8.242004096751E-01  8.197223731712E-01  8.152686666853E-01  8.108391580275E-01
  8.064337157267E-01  8.020522090257E-01  7.976945078778E-01  7.933604829430E-01
  7.890500055839E-01  7.847629478620E-01  7.804991825341E-01  7.762585830481E-01
  7.720410235396E-01  7.678463788280E-01  7.636745244128E-01  7.595253364702E-01
  7.553986918487E-01  7.512944680663E-01  7.472125433063E-01  7.431527964137E-01
  7.391151068922E-01  7.350993548996E-01  7.311054212453E-01  7.271331873860E-01
  7.231825354227E-01  7.192533480967E-01  7.153455087866E-01  7.114589015045E-01
  7.075934108927E-01  7.037489222203E-01  6.999253213798E-01  6.961224948836E-01
  6.923403298605E-01  6.885787140529E-01  6.848375358130E-01  6.811166840994E-01
  6.774160484743E-01  6.737355190997E-01  6.700749867344E-01  6.664343427309E-01
  6.628134790317E-01  6.592122881667E-01  6.556306632496E-01  6.520684979746E-01
  6.485256866138E-01  6.450021240136E-01  6.414977055916E-01  6.380123273339E-01
  6.345458857913E-01  6.310982780771E-01  6.276694018632E-01  6.242591553778E-01
  6.208674374018E-01  6.174941472662E-01  6.141391848487E-01  6.108024505713E-01
  6.074838453967E-01  6.041832708259E-01  6.009006288951E-01  5.976358221724E-01
  5.943887537557E-01  5.911593272689E-01  5.879474468600E-01  5.847530171975E-01
  5.815759434678E-01  5.784161313725E-01  5.752734871256E-01  5.721479174506E-01
  5.690393295777E-01  5.659476312411E-01  5.628727306765E-01  5.598145366178E-01
  5.567729582952E-01  5.537479054316E-01  5.507392882406E-01  5.477470174236E-01
  5.447710041672E-01  5.418111601404E-01  5.388673974921E-01  5.359396288485E-01
  5.330277673107E-01  5.301317264515E-01  5.272514203137E-01  5.243867634067E-01
  5.215376707046E-01  5.187040576433E-01  5.158858401183E-01  5.130829344818E-01
  5.102952575406E-01  5.075227265534E-01  5.047652592284E-01  5.020227737209E-01
  4.992951886308E-01  4.965824230003E-01  4.938843963113E-01  4.912010284833E-01
  4.885322398705E-01  4.858779512603E-01  4.832380838700E-01  4.806125593449E-01
  4.780012997564E-01  4.754042275986E-01  4.728212657872E-01  4.702523376564E-01
  4.676973669569E-01  4.651562778535E-01  4.626289949233E-01  4.601154431527E-01
  4.576155479359E-01  4.551292350723E-01  4.526564307642E-01  4.501970616150E-01
  4.477510546267E-01  4.453183371977E-01  4.428988371211E-01  4.404924825819E-01
  4.380992021553E-01  4.357189248045E-01  4.333515798785E-01  4.309970971101E-01
  4.286554066138E-01  4.263264388835E-01  4.240101247909E-01  4.217063955830E-01
  4.194151828801E-01  4.171364186742E-01  4.148700353264E-01  4.126159655653E-01
  4.103741424849E-01  4.081444995423E-01  4.059269705562E-01  4.037214897048E-01
  4.015279915236E-01  3.993464109036E-01  3.971766830894E-01  3.950187436774E-01
  3.928725286135E-01  3.907379741916E-01  3.886150170514E-01  3.865035941767E-01
  3.844036428935E-01  3.823151008682E-01  3.802379061053E-01  3.781719969462E-01
  3.761173120670E-01  3.740737904767E-01  3.720413715154E-01  3.700199948527E-01
  3.680096004853E-01  3.660101287362E-01  3.640215202518E-01  3.620437160010E-01
  3.600766572730E-01  3.581202856757E-01  3.561745431340E-01  3.542393718879E-01
  3.523147144908E-01  3.504005138081E-01  3.484967130150E-01  3.466032555952E-01
  3.447200853390E-01  3.428471463418E-01  3.409843830022E-01  3.391317400204E-01
  3.372891623969E-01  3.354565954303E-01  3.336339847160E-01  3.318212761446E-01
  3.300184158999E-01  3.282253504580E-01  3.264420265850E-01  3.246683913356E-01
  3.229043920519E-01  3.211499763613E-01  3.194050921752E-01  3.176696876874E-01
  3.159437113725E-01  3.142271119846E-01  3.125198385552E-01  3.108218403924E-01
  3.091330670787E-01  3.074534684700E-01  3.057829946938E-01  3.041215961478E-01
  3.024692234986E-01  3.008258276796E-01  2.991913598904E-01  2.975657715945E-01
  2.959490145185E-01  2.943410406502E-01  2.927418022374E-01  2.911512517864E-01
  2.895693420603E-01  2.879960260782E-01  2.864312571132E-01  2.848749886912E-01
  2.833271745896E-01  2.817877688355E-01  2.802567257050E-01  2.787339997212E-01
  2.772195456531E-01  2.757133185141E-01  2.742152735609E-01  2.727253662917E-01
  2.712435524453E-01  2.697697879996E-01  2.683040291699E-01  2.668462324084E-01
  2.653963544019E-01  2.639543520712E-01  2.625201825696E-01  2.610938032814E-01
  2.596751718206E-01  2.582642460301E-01  2.568609839797E-01  2.554653439655E-01
  2.540772845080E-01  2.526967643512E-01  2.513237424615E-01  2.499581780258E-01
  2.486000304510E-01  2.472492593621E-01  2.459058246015E-01  2.445696862275E-01
  2.432408045128E-01  2.419191399440E-01  2.406046532196E-01  2.392973052492E-01
  2.379970571522E-01  2.367038702569E-01  2.354177060985E-01  2.341385264189E-01
  2.328662931646E-01  2.316009684863E-01  2.303425147371E-01  2.290908944716E-01
  2.278460704450E-01  2.266080056113E-01  2.253766631225E-01  2.241520063277E-01
  2.229339987714E-01  2.217226041927E-01  2.205177865242E-01  2.193195098905E-01
  2.181277386075E-01  2.169424371809E-01  2.157635703055E-01  2.145911028635E-01
  2.134249999240E-01  2.122652267413E-01  2.111117487542E-01  2.099645315849E-01
  2.088235410375E-01  2.076887430974E-01  2.065601039297E-01  2.054375898787E-01
  2.043211674662E-01  2.032108033908E-01  2.021064645267E-01  2.010081179226E-01
  1.999157308007E-01  1.988292705556E-01  1.977487047532E-01  1.966740011295E-01
  1.956051275898E-01  1.945420522075E-01  1.934847432232E-01  1.924331690433E-01
  1.913872982391E-01  1.903470995461E-01  1.893125418623E-01  1.882835942478E-01
  1.872602259232E-01  1.862424062691E-01  1.852301048245E-01  1.842232912862E-01
  1.832219355077E-01  1.822260074978E-01  1.812354774202E-01  1.802503155919E-01
  1.792704924823E-01  1.782959787126E-01  1.773267450542E-01  1.763627624279E-01
  1.754040019031E-01  1.744504346965E-01  1.735020321710E-01  1.725587658351E-01
  1.716206073417E-01  1.706875284866E-01  1.697595012084E-01  1.688364975868E-01
  1.679184898418E-01  1.670054503326E-01  1.660973515568E-01  1.651941661492E-01
  1.642958668811E-01  1.634024266586E-01  1.625138185225E-01  1.616300156466E-01
  1.607509913369E-01  1.598767190309E-01  1.590071722960E-01  1.581423248291E-01
  1.572821504551E-01  1.564266231263E-01  1.555757169211E-01  1.547294060431E-01
  1.538876648201E-01  1.530504677031E-01  1.522177892654E-01  1.513896042012E-01
  1.505658873252E-01  1.497466135711E-01  1.489317579905E-01  1.481212957527E-01
  1.473152021425E-01  1.465134525603E-01  1.457160225204E-01  1.449228876500E-01
  1.441340236888E-01  1.433494064872E-01  1.425690120057E-01  1.417928163138E-01
  1.410207955891E-01  1.402529261160E-01  1.394891842850E-01  1.387295465912E-01
  1.379739896339E-01  1.372224901150E-01  1.364750248384E-01  1.357315707086E-01
  1.349921047298E-01  1.342566040051E-01  1.335250457351E-01  1.327974072168E-01
  1.320736658431E-01  1.313537991011E-01  1.306377845714E-01  1.299255999271E-01
  1.292172229324E-01  1.285126314418E-01  1.278118033992E-01  1.271147168362E-01
  1.264213498718E-01  1.257316807107E-01  1.250456876426E-01  1.243633490410E-01
  1.236846433619E-01  1.230095491431E-01  1.223380450029E-01  1.216701096389E-01
  1.210057218270E-01  1.203448604205E-01  1.196875043486E-01  1.190336326156E-01
  1.183832242994E-01  1.177362585509E-01  1.170927145925E-01  1.164525717172E-01
  1.158158092871E-01  1.151824067328E-01  1.145523435517E-01  1.139255993073E-01
  1.133021536277E-01  1.126819862048E-01  1.120650767928E-01  1.114514052072E-01
  1.108409513239E-01  1.102336950773E-01  1.096296164600E-01  1.090286955208E-01
  1.084309123643E-01  1.078362471492E-01  1.072446800870E-01  1.066561914415E-01
  1.060707615269E-01  1.054883707068E-01  1.049089993931E-01  1.043326280449E-01
  1.037592371669E-01  1.031888073086E-01  1.026213190629E-01  1.020567530648E-01
  1.014950899902E-01  1.009363105550E-01  1.003803955134E-01  9.982732565697E-02
  9.927708181338E-02  9.872964484508E-02  9.818499564814E-02  9.764311515102E-02
  9.710398431330E-02  9.656758412448E-02  9.603389560273E-02  9.550289979368E-02
  9.497457776916E-02  9.444891062597E-02  9.392587948468E-02  9.340546548840E-02
  9.288764980154E-02  9.237241360857E-02  9.185973811286E-02  9.134960453543E-02
  9.084199411374E-02  9.033688810051E-02  8.983426776251E-02  8.933411437937E-02
  8.883640924239E-02  8.834113365340E-02  8.784826892356E-02  8.735779637222E-02
  8.686969732577E-02  8.638395311652E-02  8.590054508157E-02  8.541945456169E-02
  8.494066290027E-02  8.446415144219E-02  8.398990153280E-02  8.351789451685E-02
  8.304811173750E-02  8.258053453528E-02  8.211514424713E-02  8.165192220543E-02
  8.119084973709E-02  8.073190816260E-02  8.027507879518E-02  7.982034293993E-02
  7.936768189298E-02  7.891707694071E-02  7.846850935904E-02  7.802196041262E-02
  7.757741135422E-02  7.713484342408E-02  7.669423784927E-02  7.625557584316E-02
  7.581883860491E-02  7.538400731900E-02  7.495106315482E-02  7.451998726631E-02
  7.409076079164E-02  7.366336485299E-02  7.323778055636E-02  7.281398899143E-02
  7.239197123151E-02  7.197170833357E-02  7.155318133830E-02  7.113637127029E-02
  7.072125913826E-02  7.030782593539E-02  6.989605263970E-02  6.948592021456E-02
  6.907740960928E-02  6.867050175980E-02  6.826517758941E-02  6.786141800973E-02
  6.745920392159E-02  6.705851621623E-02  6.665933577643E-02  6.626164347791E-02
  6.586542019072E-02  6.547064678087E-02  6.507730411206E-02  6.468537304745E-02
  6.429483445173E-02  6.390566919322E-02  6.351785814616E-02  6.313138219313E-02
  6.274622222768E-02  6.236235915708E-02  6.197977390524E-02  6.159844741580E-02
  6.121836065547E-02  6.083949461740E-02  6.046183032494E-02  6.008534883540E-02
  5.971003124412E-02  5.933585868873E-02  5.896281235362E-02  5.859087347454E-02
  5.822002334354E-02  5.785024331408E-02  5.748151480632E-02  5.711381931273E-02
  5.674713840385E-02  5.638145373437E-02  5.601674704939E-02  5.565300019096E-02
  5.529019510486E-02  5.492831384766E-02  5.456733859401E-02  5.420725164422E-02
  5.384803543206E-02  5.348967253290E-02  5.313214567206E-02  5.277543773345E-02
  5.241953176850E-02  5.206441100536E-02  5.171005885838E-02  5.135645893782E-02
  5.100359505995E-02  5.065145125729E-02  5.030001178921E-02  4.994926115283E-02
  4.959918409409E-02  4.924976561919E-02  4.890099100625E-02  4.855284581721E-02
  4.820531591005E-02  4.785838745122E-02  4.751204692830E-02  4.716628116295E-02
  4.682107732404E-02  4.647642294102E-02  4.613230591750E-02  4.578871454505E-02
  4.544563751714E-02  4.510306394329E-02  4.476098336339E-02  4.441938576211E-02
  4.407826158352E-02  4.373760174575E-02  4.339739765579E-02  4.305764122432E-02
  4.271832488067E-02  4.237944158769E-02  4.204098485676E-02  4.170294876268E-02
  4.136532795858E-02  4.102811769075E-02  4.069131381332E-02  4.035491280290E-02
  4.001891177298E-02  3.968330848822E-02  3.934810137844E-02  3.901328955244E-02
  3.867887281143E-02  3.834485166223E-02  3.801122733004E-02  3.767800177086E-02
  3.734517768344E-02  3.701275852074E-02  3.668074850093E-02  3.634915261776E-02
  3.601797665040E-02  3.568722717258E-02  3.535691156107E-02  3.502703800347E-02
  3.469761550520E-02  3.436865389564E-02  3.404016383354E-02  3.371215681144E-02
  3.338464515915E-02  3.305764204637E-02  3.273116148419E-02  3.240521832558E-02
  3.207982826481E-02  3.175500783574E-02  3.143077440893E-02  3.110714618764E-02
  3.078414220251E-02  3.046178230506E-02  3.014008715992E-02  2.981907823574E-02
  2.949877779477E-02  2.917920888119E-02  2.886039530796E-02  2.854236164239E-02
  2.822513319037E-02  2.790873597911E-02  2.759319673860E-02  2.727854288165E-02
  2.696480248256E-02  2.665200425442E-02  2.634017752509E-02  2.602935221176E-02
  2.571955879433E-02  2.541082828738E-02  2.510319221095E-02  2.479668256005E-02
  2.449133177303E-02  2.418717269877E-02  2.388423856279E-02  2.358256293226E-02
  2.328217968014E-02  2.298312294821E-02  2.268542710938E-02  2.238912672909E-02
  2.209425652604E-02  2.180085133216E-02  2.150894605212E-02  2.121857562220E-02
  2.092977496877E-02  2.064257896646E-02  2.035702239600E-02  2.007313990193E-02
  1.979096595018E-02  1.951053478567E-02  1.923188039003E-02  1.895503643942E-02
  1.868003626268E-02  1.840691279990E-02  1.813569856127E-02  1.786642558668E-02
  1.759912540580E-02  1.733382899897E-02  1.707056675882E-02  1.680936845290E-02
  1.655026318713E-02  1.629327937043E-02  1.603844468040E-02  1.578578603022E-02
  1.553532953684E-02  1.528710049046E-02  1.504112332545E-02  1.479742159266E-02
  1.455601793329E-02  1.431693405430E-02  1.408019070537E-02  1.384580765755E-02
  1.361380368352E-02  1.338419653960E-02  1.315700294943E-02  1.293223858942E-02
  1.270991807590E-02  1.249005495409E-02  1.227266168877E-02  1.205774965676E-02
  1.184532914108E-02  1.163540932696E-02  1.142799829943E-02  1.122310304272E-02
  1.102072944133E-02  1.082088228266E-02  1.062356526136E-02  1.042878098519E-02
  1.023653098245E-02  1.004681571086E-02  9.859634567958E-03  9.674985902807E-03
  9.492867029110E-03  9.313274239580E-03  9.136202821553E-03  8.961647073768E-03
  8.789600324260E-03  8.620054949298E-03  8.453002393319E-03  8.288433189770E-03
  8.126336982824E-03  7.966702549874E-03  7.809517824769E-03  7.654769921699E-03
  7.502445159693E-03  7.352529087641E-03  7.205006509794E-03  7.059861511663E-03
  6.917077486282E-03  6.776637160739E-03  6.638522622948E-03  6.502715348585E-03
  6.369196228143E-03  6.237945594043E-03  6.108943247756E-03  5.982168486885E-03
  5.857600132150E-03  5.735216554244E-03  5.614995700500E-03  5.496915121344E-03
  5.380951996478E-03  5.267083160766E-03  5.155285129783E-03  5.045534124996E-03
  4.937806098544E-03  4.832076757592E-03  4.728321588229E-03  4.626515878884E-03
  4.526634743244E-03  4.428653142651E-03  4.332545907960E-03  4.238287760835E-03
  4.145853334484E-03  4.055217193812E-03  3.966353854976E-03  3.879237804346E-03
  3.793843516853E-03  3.710145473736E-03  3.628118179657E-03  3.547736179214E-03
  3.468974072824E-03  3.391806531995E-03  3.316208313979E-03  3.242154275809E-03
  3.169619387737E-03  3.098578746059E-03  3.029007585346E-03  2.960881290087E-03
  2.894175405748E-03  2.828865649257E-03  2.764927918930E-03  2.702338303836E-03
  2.641073092627E-03  2.581108781830E-03  2.522422083625E-03  2.464989933107E-03
  2.408789495061E-03  2.353798170252E-03  2.299993601240E-03  2.247353677747E-03
  2.195856541572E-03  2.145480591087E-03  2.096204485304E-03  2.048007147553E-03
  2.000867768761E-03  1.954765810361E-03  1.909681006836E-03  1.865593367919E-03
  1.822483180457E-03  1.780331009947E-03  1.739117701776E-03  1.698824382154E-03
  1.659432458769E-03  1.620923621173E-03  1.583279840905E-03  1.546483371377E-03
  1.510516747514E-03  1.475362785183E-03  1.441004580400E-03  1.407425508347E-03
  1.374609222194E-03  1.342539651741E-03  1.311201001892E-03  1.280577750975E-03
  1.250654648906E-03  1.221416715216E-03  1.192849236945E-03  1.164937766419E-03
  1.137668118907E-03  1.111026370174E-03  1.084998853937E-03  1.059572159231E-03
  1.034733127691E-03  1.010468850758E-03  9.867666668134E-04  9.636141582549E-04
  9.409991485121E-04  9.189096990123E-04  8.973341061010E-04  8.762608979223E-04
  8.556788312649E-04  8.355768883784E-04  8.159442737639E-04  7.967704109450E-04
  7.780449392215E-04  7.597577104110E-04  7.418987855827E-04  7.244584317854E-04
  7.074271187742E-04  6.907955157397E-04  6.745544880412E-04  6.586950939485E-04
  6.432085813927E-04  6.280863847321E-04  6.133201215316E-04  5.989015893607E-04
  5.848227626112E-04  5.710757893361E-04  5.576529881125E-04  5.445468449296E-04
  5.317500101033E-04  5.192552952191E-04  5.070556701045E-04  4.951442598324E-04
  4.835143417561E-04  4.721593425773E-04  4.610728354481E-04  4.502485371076E-04
  4.396803050540E-04  4.293621347525E-04  4.192881568804E-04  4.094526346090E-04
  3.998499609236E-04  3.904746559811E-04  3.813213645062E-04  3.723848532267E-04
  3.636600083464E-04  3.551418330586E-04  3.468254450973E-04  3.387060743288E-04
  3.307790603813E-04  3.230398503142E-04  3.154839963271E-04  3.081071535062E-04
  3.009050776112E-04  2.938736228999E-04  2.870087399912E-04  2.803064737668E-04
  2.737629613106E-04  2.673744298859E-04  2.611371949497E-04  2.550476582045E-04
  2.491023056865E-04  2.432977058899E-04  2.376305079283E-04  2.320974397300E-04
  2.266953062701E-04  2.214209878364E-04  2.162714383300E-04  2.112436835998E-04
  2.063348198102E-04  2.015420118425E-04  1.968624917282E-04  1.922935571145E-04
  1.878325697620E-04  1.834769540729E-04  1.792241956501E-04  1.750718398869E-04
  1.710174905861E-04  1.670588086081E-04  1.631935105485E-04  1.594193674434E-04
  1.557342035030E-04  1.521358948721E-04  1.486223684177E-04  1.451916005433E-04
  1.418416160285E-04  1.385704868949E-04  1.353763312960E-04  1.322573124325E-04
  1.292116374915E-04  1.262375566087E-04  1.233333618551E-04  1.204973862447E-04
  1.177280027661E-04  1.150236234351E-04  1.123826983688E-04  1.098037148811E-04
  1.072851965981E-04  1.048257025944E-04  1.024238265489E-04  1.000781959195E-04
  9.778747113763E-05  9.555034482054E-05  9.336554100221E-05  9.123181438198E-05
  8.914794959048E-05  8.711276047279E-05  8.512508938814E-05  8.318380652603E-05
  8.128780923829E-05  7.943602138681E-05  7.762739270651E-05  7.586089818335E-05
  7.413553744690E-05  7.245033417728E-05  7.080433552603E-05  6.919661155078E-05
  6.762625466313E-05  6.609237908983E-05  6.459412034652E-05  6.313063472417E-05
  6.170109878760E-05  6.030470888603E-05  5.894068067526E-05  5.760824865126E-05
  5.630666569495E-05  5.503520262777E-05  5.379314777803E-05  5.257980655753E-05
  5.139450104842E-05  5.023656959994E-05  4.910536643487E-05  4.800026126542E-05
  4.692063891842E-05  4.586589896948E-05  4.483545538602E-05  4.382873617884E-05
  4.284518306221E-05  4.188425112207E-05  4.094540849232E-05  4.002813603888E-05
  3.913192705145E-05  3.825628694269E-05  3.740073295473E-05  3.656479387275E-05
  3.574800974553E-05  3.494993161278E-05  3.417012123908E-05  3.340815085428E-05
  3.266360290020E-05  3.193606978348E-05  3.122515363450E-05  3.053046607203E-05
  2.985162797373E-05  2.918826925219E-05  2.854002863638E-05  2.790655345847E-05
  2.728749944582E-05  2.668253051804E-05  2.609131858898E-05  2.551354337355E-05
  2.494889219925E-05  2.439705982229E-05  2.385774824818E-05  2.333066655672E-05
  2.281553073119E-05  2.231206349182E-05  2.181999413316E-05  2.133905836558E-05
  2.086899816051E-05  2.040956159951E-05  1.996050272701E-05  1.952158140662E-05
  1.909256318099E-05  1.867321913503E-05  1.826332576247E-05  1.786266483575E-05
  1.747102327898E-05  1.708819304402E-05  1.671397098966E-05  1.634815876361E-05
  1.599056268750E-05  1.564099364457E-05  1.529926697018E-05  1.496520234491E-05
  1.463862369034E-05  1.431935906731E-05  1.400724057669E-05  1.370210426254E-05
  1.340379001764E-05  1.311214149132E-05  1.282700599953E-05  1.254823443709E-05
  1.227568119208E-05  1.200920406233E-05  1.174866417389E-05  1.149392590153E-05
  1.124485679113E-05  1.100132748402E-05  1.076321164306E-05  1.053038588062E-05
  1.030272968822E-05  1.008012536791E-05  9.862457965343E-06  9.649615204439E-06
  9.441487423616E-06  9.237967513611E-06  9.038950856774E-06  8.844335267843E-06
  8.654020936158E-06  8.467910369260E-06  8.285908337869E-06  8.107921822181E-06
  7.933859959470E-06  7.763633992956E-06  7.597157221903E-06  7.434344952929E-06
  7.275114452489E-06  7.119384900501E-06  6.967077345097E-06  6.818114658459E-06
  6.672421493727E-06  6.529924242937E-06  6.390550995978E-06  6.254231500537E-06
  6.120897123001E-06  5.990480810315E-06  5.862917052736E-06  5.738141847505E-06
  5.616092663373E-06  5.496708405989E-06  5.379929384119E-06  5.265697276673E-06
  5.153955100521E-06  5.044647179090E-06  4.937719111699E-06  4.833117743642E-06
  4.730791136983E-06  4.630688542048E-06  4.532760369600E-06  4.436958163680E-06
  4.343234575101E-06  4.251543335567E-06  4.161839232418E-06  4.074078083975E-06
  3.988216715471E-06  3.904212935561E-06  3.822025513389E-06  3.741614156198E-06
  3.662939487483E-06  3.585963025656E-06  3.510647163219E-06  3.436955146436E-06
  3.364851055489E-06  3.294299785098E-06  3.225267025612E-06  3.157719244540E-06
  3.091623668525E-06  3.026948265742E-06  2.963661728721E-06  2.901733457564E-06
  2.841133543573E-06  2.781832753256E-06  2.723802512715E-06  2.667014892407E-06
  2.611442592255E-06  2.557058927122E-06  2.503837812620E-06  2.451753751257E-06
  2.400781818914E-06  2.350897651633E-06  2.302077432722E-06  2.254297880165E-06
  2.207536234321E-06  2.161770245924E-06  2.116978164351E-06  2.073138726178E-06
  2.030231144000E-06  1.988235095511E-06  1.947130712844E-06  1.906898572162E-06
  1.867519683487E-06  1.828975480774E-06  1.791247812215E-06  1.754318930768E-06
  1.718171484908E-06  1.682788509600E-06  1.648153417476E-06  1.614249990217E-06
  1.581062370148E-06  1.548575052012E-06  1.516772874952E-06  1.485641014667E-06
  1.455164975761E-06  1.425330584262E-06  1.396123980320E-06  1.367531611075E-06
  1.339540223686E-06  1.312136858528E-06  1.285308842543E-06  1.259043782749E-06
  1.233329559891E-06  1.208154322254E-06  1.183506479602E-06  1.159374697274E-06
  1.135747890402E-06  1.112615218276E-06  1.089966078826E-06  1.067790103245E-06
  1.046077150726E-06  1.024817303323E-06  1.004000860936E-06  9.836183364026E-07
13     2.6981539000000001E+01     0.0000000000000000E+00   fcc
  0.000000000000E+00  0.000000000000E+00  0.000000000000E+00  0.000000000000E+00
  0.000000000000E+00  0.000000000000E+00  0.000000000000E+00  0.000000000000E+00
  0.000000000000E+00  0.000000000000E+00  0.000000000000E+00  0.000000000000E+00
  0.000000000000E+00  0.000000000000E+00  0.000000000000E+00  0.000000000000E+00
  0.000000000000E+00  0.000000000000E+00  0.000000000000E+00  0.000000000000E+00
  0.000000000000E+00  0.000000000000E+00  0.000000000000E+00  0.000000000000E+00
  0.000000000000E+00  0.000000000000E+00  0.000000000000E+00  0.000000000000E+00
  0.000000000000E+00  0.000000000000E+00  0.000000000000E+00  0.000000000000E+00
  0.000000000000E+00  0.000000000000E+00  0.000000000000E+00  0.000000000000E+00
  0.000000000000E+00  0.000000000000E+00  0.000000000000E+00  0.000000000000E+00
  0.000000000000E+00  0.000000000000E+00  0.000000000000E+00  0.000000000000E+00
  0.000000000000E+00  0.000000000000E+00  0.000000000000E+00  0.000000000000E+00
  0.000000000000E+00  0.000000000000E+00  0.000000000000E+00  0.000000000000E+00
  0.000000000000E+00  0.000000000000E+00  0.000000000000E+00  0.000000000000E+00
  0.000000000000E+00  0.000000000000E+00  0.000000000000E+00  0.000000000000E+00
  0.000000000000E+00  0.000000000000E+00  0.000000000000E+00  0.000000000000E+00
  0.000000000000E+00  0.000000000000E+00  0.000000000000E+00  0.000000000000E+00
  0.000000000000E+00  0.000000000000E+00  0.000000000000E+00  0.000000000000E+00
  0.000000000000E+00  0.000000000000E+00  0.000000000000E+00  0.000000000000E+00
  0.000000000000E+00  0.000000000000E+00  0.000000000000E+00  0.000000000000E+00
  0.000000000000E+00  0.000000000000E+00  0.000000000000E+00  0.000000000000E+00
  0.000000000000E+00  0.000000000000E+00  0.000000000000E+00  0.000000000000E+00
  0.000000000000E+00  0.000000000000E+00  0.000000000000E+00  0.000000000000E+00
  0.000000000000E+00  0.000000000000E+00  0.000000000000E+00  0.000000000000E+00
  0.000000000000E+00  0.000000000000E+00  0.000000000000E+00  0.000000000000E+00
  0.000000000000E+00  0.000000000000E+00  0.000000000000E+00  0.000000000000E+00
  0.000000000000E+00  0.000000000000E+00  0.000000000000E+00  0.000000000000E+00
  0.000000000000E+00  0.000000000000E+00  0.000000000000E+00  0.000000000000E+00
  0.000000000000E+00  0.000000000000E+00  0.000000000000E+00  0.000000000000E+00
  0.000000000000E+00  0.000000000000E+00  0.000000000000E+00  0.000000000000E+00
  0.000000000000E+00  0.000000000000E+00  0.000000000000E+00  0.000000000000E+00
  0.000000000000E+00  0.000000000000E+00  0.000000000000E+00  0.000000000000E+00
  0.000000000000E+00  0.000000000000E+00  0.000000000000E+00  0.000000000000E+00
  0.000000000000E+00  0.000000000000E+00  0.000000000000E+00  0.000000000000E+00
  0.000000000000E+00  0.000000000000E+00  0.000000000000E+00  0.000000000000E+00
  0.000000000000E+00  0.000000000000E+00  0.000000000000E+00  0.000000000000E+00
  0.000000000000E+00  0.000000000000E+00  0.000000000000E+00  0.000000000000E+00
  0.000000000000E+00  0.000000000000E+00  0.000000000000E+00  0.000000000000E+00
  0.000000000000E+00  0.000000000000E+00  0.000000000000E+00  0.000000000000E+00
  0.000000000000E+00  0.000000000000E+00  0.000000000000E+00  0.000000000000E+00
  0.000000000000E+00  0.000000000000E+00  0.000000000000E+00  0.000000000000E+00
  0.000000000000E+00  0.000000000000E+00  0.000000000000E+00  0.000000000000E+00
  0.000000000000E+00  0.000000000000E+00  0.000000000000E+00  0.000000000000E+00
  0.000000000000E+00  0.000000000000E+00  0.000000000000E+00  0.000000000000E+00
  0.000000000000E+00  0.000000000000E+00  0.000000000000E+00  0.000000000000E+00
  0.000000000000E+00  0.000000000000E+00  0.000000000000E+00  0.000000000000E+00
  0.000000000000E+00  0.000000000000E+00  0.000000000000E+00  0.000000000000E+00
  0.000000000000E+00  0.000000000000E+00  0.000000000000E+00  0.000000000000E+00
  0.000000000000E+00  0.000000000000E+00  0.000000000000E+00  0.000000000000E+00
  0.000000000000E+00  0.000000000000E+00  0.000000000000E+00  0.000000000000E+00
  0.000000000000E+00  0.000000000000E+00  0.000000000000E+00  0.000000000000E+00
  0.000000000000E+00  0.000000000000E+00  0.000000000000E+00  0.000000000000E+00
  0.000000000000E+00  0.000000000000E+00  0.000000000000E+00  0.000000000000E+00
  0.000000000000E+00  0.000000000000E+00  0.000000000000E+00  0.000000000000E+00
  0.000000000000E+00  0.000000000000E+00  0.000000000000E+00  0.000000000000E+00
  0.000000000000E+00  0.000000000000E+00  0.000000000000E+00  0.000000000000E+00
  0.000000000000E+00  0.000000000000E+00  0.000000000000E+00  0.000000000000E+00
  0.000000000000E+00  0.000000000000E+00  0.000000000000E+00  0.000000000000E+00
  0.000000000000E+00  0.000000000000E+00  0.000000000000E+00  0.000000000000E+00
  0.000000000000E+00  0.000000000000E+00  0.000000000000E+00  0.000000000000E+00
  0.000000000000E+00  0.000000000000E+00  0.000000000000E+00  0.000000000000E+00
  0.000000000000E+00  0.000000000000E+00  0.000000000000E+00  0.000000000000E+00
  0.000000000000E+00  0.000000000000E+00  0.000000000000E+00  0.000000000000E+00
  0.000000000000E+00  0.000000000000E+00  0.000000000000E+00  0.000000000000E+00
  0.000000000000E+00  0.000000000000E+00  0.000000000000E+00  0.000000000000E+00
  0.000000000000E+00  0.000000000000E+00  0.000000000000E+00  0.000000000000E+00
  0.000000000000E+00  0.000000000000E+00  0.000000000000E+00  0.000000000000E+00
  0.000000000000E+00  0.000000000000E+00  0.000000000000E+00  0.000000000000E+00
  0.000000000000E+00  0.000000000000E+00  0.000000000000E+00  0.000000000000E+00
  0.000000000000E+00  0.000000000000E+00  0.000000000000E+00  0.000000000000E+00
  0.000000000000E+00  0.000000000000E+00  0.000000000000E+00  0.000000000000E+00
  0.000000000000E+00  0.000000000000E+00  0.000000000000E+00  0.000000000000E+00
  0.000000000000E+00  0.000000000000E+00  0.000000000000E+00  0.000000000000E+00
  0.000000000000E+00  0.000000000000E+00  0.000000000000E+00  0.000000000000E+00
  0.000000000000E+00  0.000000000000E+00  0.000000000000E+00  0.000000000000E+00
  0.000000000000E+00  0.000000000000E+00  0.000000000000E+00  0.000000000000E+00
  0.000000000000E+00  0.000000000000E+00  0.000000000000E+00  0.000000000000E+00
  0.000000000000E+00  0.000000000000E+00  0.000000000000E+00  0.000000000000E+00
  0.000000000000E+00  0.000000000000E+00  0.000000000000E+00  0.000000000000E+00
  0.000000000000E+00  0.000000000000E+00  0.000000000000E+00  0.000000000000E+00
  0.000000000000E+00  0.000000000000E+00  0.000000000000E+00  0.000000000000E+00
  0.000000000000E+00  0.000000000000E+00  0.000000000000E+00  0.000000000000E+00
  0.000000000000E+00  0.000000000000E+00  0.000000000000E+00  0.000000000000E+00
  0.000000000000E+00  0.000000000000E+00  0.000000000000E+00  0.000000000000E+00
  0.000000000000E+00  0.000000000000E+00  0.000000000000E+00  0.000000000000E+00
  0.000000000000E+00  0.000000000000E+00  0.000000000000E+00  0.000000000000E+00
  0.000000000000E+00  0.000000000000E+00  0.000000000000E+00  0.000000000000E+00
  0.000000000000E+00  0.000000000000E+00  0.000000000000E+00  0.000000000000E+00
  0.000000000000E+00  0.000000000000E+00  0.000000000000E+00  0.000000000000E+00
  0.000000000000E+00  0.000000000000E+00  0.000000000000E+00  0.000000000000E+00
  0.000000000000E+00  0.000000000000E+00  0.000000000000E+00  0.000000000000E+00
  0.000000000000E+00  0.000000000000E+00  0.000000000000E+00  0.000000000000E+00
  0.000000000000E+00  0.000000000000E+00  0.000000000000E+00  0.000000000000E+00
  0.000000000000E+00  0.000000000000E+00  0.000000000000E+00  0.000000000000E+00
  0.000000000000E+00  0.000000000000E+00  0.000000000000E+00  0.000000000000E+00
  0.000000000000E+00  0.000000000000E+00  0.000000000000E+00  0.000000000000E+00
  0.000000000000E+00  0.000000000000E+00  0.000000000000E+00  0.000000000000E+00
  0.000000000000E+00  0.000000000000E+00  0.000000000000E+00  0.000000000000E+00
  0.000000000000E+00  0.000000000000E+00  0.000000000000E+00  0.000000000000E+00
  0.000000000000E+00  0.000000000000E+00  0.000000000000E+00  0.000000000000E+00
  0.000000000000E+00  0.000000000000E+00  0.000000000000E+00  0.000000000000E+00
  0.000000000000E+00  0.000000000000E+00  0.000000000000E+00  0.000000000000E+00
  0.000000000000E+00  0.000000000000E+00  0.000000000000E+00  0.000000000000E+00
  0.000000000000E+00  0.000000000000E+00  0.000000000000E+00  0.000000000000E+00
  0.000000000000E+00  0.000000000000E+00  0.000000000000E+00  0.000000000000E+00
  0.000000000000E+00  0.000000000000E+00  0.000000000000E+00  0.000000000000E+00
  0.000000000000E+00  0.000000000000E+00  0.000000000000E+00  0.000000000000E+00
  0.000000000000E+00  0.000000000000E+00  0.000000000000E+00  0.000000000000E+00
  0.000000000000E+00  0.000000000000E+00  0.000000000000E+00  0.000000000000E+00
  0.000000000000E+00  0.000000000000E+00  0.000000000000E+00  0.000000000000E+00
  0.000000000000E+00  0.000000000000E+00  0.000000000000E+00  0.000000000000E+00
  0.000000000000E+00  0.000000000000E+00  0.000000000000E+00  0.000000000000E+00
  0.000000000000E+00  0.000000000000E+00  0.000000000000E+00  0.000000000000E+00
  0.000000000000E+00  0.000000000000E+00  0.000000000000E+00  0.000000000000E+00
  0.000000000000E+00  0.000000000000E+00  0.000000000000E+00  0.000000000000E+00
  0.000000000000E+00  0.000000000000E+00  0.000000000000E+00  0.000000000000E+00
  0.000000000000E+00  0.000000000000E+00  0.000000000000E+00  0.000000000000E+00
  0.000000000000E+00  0.000000000000E+00  0.000000000000E+00  0.000000000000E+00
  0.000000000000E+00  0.000000000000E+00  0.000000000000E+00  0.000000000000E+00
  0.000000000000E+00  0.000000000000E+00  0.000000000000E+00  0.000000000000E+00
  0.000000000000E+00  0.000000000000E+00  0.000000000000E+00  0.000000000000E+00
  0.000000000000E+00  0.000000000000E+00  0.000000000000E+00  0.000000000000E+00
  0.000000000000E+00  0.000000000000E+00  0.000000000000E+00  0.000000000000E+00
  0.000000000000E+00  0.000000000000E+00  0.000000000000E+00  0.000000000000E+00
  0.000000000000E+00  0.000000000000E+00  0.000000000000E+00  0.000000000000E+00
  0.000000000000E+00  0.000000000000E+00  0.000000000000E+00  0.000000000000E+00
  0.000000000000E+00  0.000000000000E+00  0.000000000000E+00  0.000000000000E+00
  0.000000000000E+00  0.000000000000E+00  0.000000000000E+00  0.000000000000E+00
  0.000000000000E+00  0.000000000000E+00  0.000000000000E+00  0.000000000000E+00
  0.000000000000E+00  0.000000000000E+00  0.000000000000E+00  0.000000000000E+00
  0.000000000000E+00  0.000000000000E+00  0.000000000000E+00  0.000000000000E+00
  0.000000000000E+00  0.000000000000E+00  0.000000000000E+00  0.000000000000E+00
  0.000000000000E+00  0.000000000000E+00  0.000000000000E+00  0.000000000000E+00
  0.000000000000E+00  0.000000000000E+00  0.000000000000E+00  0.000000000000E+00
  0.000000000000E+00  0.000000000000E+00  0.000000000000E+00  0.000000000000E+00
  0.000000000000E+00  0.000000000000E+00  0.000000000000E+00  0.000000000000E+00
  0.000000000000E+00  0.000000000000E+00  0.000000000000E+00  0.000000000000E+00
  0.000000000000E+00  0.000000000000E+00  0.000000000000E+00  0.000000000000E+00
  0.000000000000E+00  0.000000000000E+00  0.000000000000E+00  0.000000000000E+00
  0.000000000000E+00  0.000000000000E+00  0.000000000000E+00  0.000000000000E+00
  0.000000000000E+00  0.000000000000E+00  0.000000000000E+00  0.000000000000E+00
  0.000000000000E+00  0.000000000000E+00  0.000000000000E+00  0.000000000000E+00
  0.000000000000E+00  0.000000000000E+00  0.000000000000E+00  0.000000000000E+00
  0.000000000000E+00  0.000000000000E+00  0.000000000000E+00  0.000000000000E+00
  0.000000000000E+00  0.000000000000E+00  0.000000000000E+00  0.000000000000E+00
  0.000000000000E+00  0.000000000000E+00  0.000000000000E+00  0.000000000000E+00
  0.000000000000E+00  0.000000000000E+00  0.000000000000E+00  0.000000000000E+00
  0.000000000000E+00  0.000000000000E+00  0.000000000000E+00  0.000000000000E+00
  0.000000000000E+00  0.000000000000E+00  0.000000000000E+00  0.000000000000E+00
  0.000000000000E+00  0.000000000000E+00  0.000000000000E+00  0.000000000000E+00
  0.000000000000E+00  0.000000000000E+00  0.000000000000E+00  0.000000000000E+00
  0.000000000000E+00  0.000000000000E+00  0.000000000000E+00  0.000000000000E+00
  0.000000000000E+00  0.000000000000E+00  0.000000000000E+00  0.000000000000E+00
  0.000000000000E+00  0.000000000000E+00  0.000000000000E+00  0.000000000000E+00
  0.000000000000E+00  0.000000000000E+00  0.000000000000E+00  0.000000000000E+00
  0.000000000000E+00  0.000000000000E+00  0.000000000000E+00  0.000000000000E+00
  0.000000000000E+00  0.000000000000E+00  0.000000000000E+00  0.000000000000E+00
  0.000000000000E+00  0.000000000000E+00  0.000000000000E+00  0.000000000000E+00
  0.000000000000E+00  0.000000000000E+00  0.000000000000E+00  0.000000000000E+00
  0.000000000000E+00  0.000000000000E+00  0.000000000000E+00  0.000000000000E+00
  0.000000000000E+00  0.000000000000E+00  0.000000000000E+00  0.000000000000E+00
  0.000000000000E+00  0.000000000000E+00  0.000000000000E+00  0.000000000000E+00
  0.000000000000E+00  0.000000000000E+00  0.000000000000E+00  0.000000000000E+00
  0.000000000000E+00  0.000000000000E+00  0.000000000000E+00  0.000000000000E+00
  0.000000000000E+00  0.000000000000E+00  0.000000000000E+00  0.000000000000E+00
  0.000000000000E+00  0.000000000000E+00  0.000000000000E+00  0.000000000000E+00
  0.000000000000E+00  0.000000000000E+00  0.000000000000E+00  0.000000000000E+00
  0.000000000000E+00  0.000000000000E+00  0.000000000000E+00  0.000000000000E+00
  0.000000000000E+00  0.000000000000E+00  0.000000000000E+00  0.000000000000E+00
  0.000000000000E+00  0.000000000000E+00  0.000000000000E+00  0.000000000000E+00
  0.000000000000E+00  0.000000000000E+00  0.000000000000E+00  0.000000000000E+00
  0.000000000000E+00  0.000000000000E+00  0.000000000000E+00  0.000000000000E+00
  0.000000000000E+00  0.000000000000E+00  0.000000000000E+00  0.000000000000E+00
  0.000000000000E+00  0.000000000000E+00  0.000000000000E+00  0.000000000000E+00
  0.000000000000E+00  0.000000000000E+00  0.000000000000E+00  0.000000000000E+00
  0.000000000000E+00  0.000000000000E+00  0.000000000000E+00  0.000000000000E+00
  0.000000000000E+00  0.000000000000E+00  0.000000000000E+00  0.000000000000E+00
  0.000000000000E+00  0.000000000000E+00  0.000000000000E+00  0.000000000000E+00
  0.000000000000E+00  0.000000000000E+00  0.000000000000E+00  0.000000000000E+00
  0.000000000000E+00  0.000000000000E+00  0.000000000000E+00  0.000000000000E+00
  0.000000000000E+00  0.000000000000E+00  0.000000000000E+00  0.000000000000E+00
  0.000000000000E+00  0.000000000000E+00  0.000000000000E+00  0.000000000000E+00
  0.000000000000E+00  0.000000000000E+00  0.000000000000E+00  0.000000000000E+00
  0.000000000000E+00  0.000000000000E+00  0.000000000000E+00  0.000000000000E+00
  0.000000000000E+00  0.000000000000E+00  0.000000000000E+00  0.000000000000E+00
  0.000000000000E+00  0.000000000000E+00  0.000000000000E+00  0.000000000000E+00
  0.000000000000E+00  0.000000000000E+00  0.000000000000E+00  0.000000000000E+00
  0.000000000000E+00  0.000000000000E+00  0.000000000000E+00  0.000000000000E+00
  0.000000000000E+00  0.000000000000E+00  0.000000000000E+00  0.000000000000E+00
  0.000000000000E+00  0.000000000000E+00  0.000000000000E+00  0.000000000000E+00
  0.000000000000E+00  0.000000000000E+00  0.000000000000E+00  0.000000000000E+00
  0.000000000000E+00  0.000000000000E+00  0.000000000000E+00  0.000000000000E+00
  0.000000000000E+00  0.000000000000E+00  0.000000000000E+00  0.000000000000E+00
  0.000000000000E+00  0.000000000000E+00  0.000000000000E+00  0.000000000000E+00
  0.000000000000E+00  0.000000000000E+00  0.000000000000E+00  0.000000000000E+00
  0.000000000000E+00  0.000000000000E+00  0.000000000000E+00  0.000000000000E+00
  0.000000000000E+00  0.000000000000E+00  0.000000000000E+00  0.000000000000E+00
  0.000000000000E+00  0.000000000000E+00  0.000000000000E+00  0.000000000000E+00
  0.000000000000E+00  0.000000000000E+00  0.000000000000E+00  0.000000000000E+00
  0.000000000000E+00  0.000000000000E+00  0.000000000000E+00  0.000000000000E+00
  0.000000000000E+00  0.000000000000E+00  0.000000000000E+00  0.000000000000E+00
  0.000000000000E+00  0.000000000000E+00  0.000000000000E+00  0.000000000000E+00
  0.000000000000E+00  0.000000000000E+00  0.000000000000E+00  0.000000000000E+00
  0.000000000000E+00  0.000000000000E+00  0.000000000000E+00  0.000000000000E+00
  0.000000000000E+00  0.000000000000E+00  0.000000000000E+00  0.000000000000E+00
  0.000000000000E+00  0.000000000000E+00  0.000000000000E+00  0.000000000000E+00
  0.000000000000E+00  0.000000000000E+00  0.000000000000E+00  0.000000000000E+00
  0.000000000000E+00  0.000000000000E+00  0.000000000000E+00  0.000000000000E+00
  0.000000000000E+00  0.000000000000E+00  0.000000000000E+00  0.000000000000E+00
  0.000000000000E+00  0.000000000000E+00  0.000000000000E+00  0.000000000000E+00
  0.000000000000E+00  0.000000000000E+00  0.000000000000E+00  0.000000000000E+00
  0.000000000000E+00  0.000000000000E+00  0.000000000000E+00  0.000000000000E+00
  0.000000000000E+00  0.000000000000E+00  0.000000000000E+00  0.000000000000E+00
  0.000000000000E+00  0.000000000000E+00  0.000000000000E+00  0.000000000000E+00
  0.000000000000E+00  0.000000000000E+00  0.000000000000E+00  0.000000000000E+00
  0.000000000000E+00  0.000000000000E+00  0.000000000000E+00  0.000000000000E+00
  0.000000000000E+00  0.000000000000E+00  0.000000000000E+00  0.000000000000E+00
  0.000000000000E+00  0.000000000000E+00  0.000000000000E+00  0.000000000000E+00
  0.000000000000E+00  0.000000000000E+00  0.000000000000E+00  0.000000000000E+00
  0.000000000000E+00  0.000000000000E+00  0.000000000000E+00  0.000000000000E+00
  0.000000000000E+00  0.000000000000E+00  0.000000000000E+00  0.000000000000E+00
  0.000000000000E+00  0.000000000000E+00  0.000000000000E+00  0.000000000000E+00
  0.000000000000E+00  0.000000000000E+00  0.000000000000E+00  0.000000000000E+00
  0.000000000000E+00  0.000000000000E+00  0.000000000000E+00  0.000000000000E+00
  0.000000000000E+00  0.000000000000E+00  0.000000000000E+00  0.000000000000E+00
  0.000000000000E+00  0.000000000000E+00  0.000000000000E+00  0.000000000000E+00
  0.000000000000E+00  0.000000000000E+00  0.000000000000E+00  0.000000000000E+00
  0.000000000000E+00  0.000000000000E+00  0.000000000000E+00  0.000000000000E+00
